{"learner":{"attributes":{},"feature_names":["Open","High","Low","Close","Adj Close","Volume","close_lag1","close_lag2","close_lag3","MA5","MA10","MA20","Return","Volume_MA5"],"feature_types":["float","float","float","float","float","int","float","float","float","float","float","float","float","float"],"gradient_booster":{"model":{"gbtree_model_param":{"num_parallel_tree":"1","num_trees":"176","size_leaf_vector":"0"},"tree_info":[0,0,0,0,0,0,0,0,0,0,0,0,0,0,0,0,0,0,0,0,0,0,0,0,0,0,0,0,0,0,0,0,0,0,0,0,0,0,0,0,0,0,0,0,0,0,0,0,0,0,0,0,0,0,0,0,0,0,0,0,0,0,0,0,0,0,0,0,0,0,0,0,0,0,0,0,0,0,0,0,0,0,0,0,0,0,0,0,0,0,0,0,0,0,0,0,0,0,0,0,0,0,0,0,0,0,0,0,0,0,0,0,0,0,0,0,0,0,0,0,0,0,0,0,0,0,0,0,0,0,0,0,0,0,0,0,0,0,0,0,0,0,0,0,0,0,0,0,0,0,0,0,0,0,0,0,0,0,0,0,0,0,0,0,0,0,0,0,0,0,0,0,0,0,0,0],"trees":[{"base_weights":[-3.672506E0,-1.8350722E2,6.2739056E2,-3.050282E2,5.1872303E1,4.6742825E2,7.233108E2,-3.5212537E2,-2.2489583E2,-1.1228776E0,1.2614702E2,3.0415503E2,1.5465892E1,1.9281841E1,2.2340542E1,-1.1521763E1,-9.511624E0,-2.5084755E2,-4.835719E0,-8.368743E1,2.3262371E1,9.620954E1,5.7815213E0,6.8813095E0,1.0277624E1,-8.104295E0,-6.8799E0,-3.2497246E0,-5.2803288E1,-5.365668E-1,3.9534733E1,8.067096E1,3.559812E0,-1.755258E0,-1.080428E0,-4.4370916E-1,2.8701854E-1,8.664624E-1,1.4234536E0,2.1840057E0,2.6782465E0],"categories":[],"categories_nodes":[],"categories_segments":[],"categories_sizes":[],"default_left":[0,0,0,0,0,0,0,0,0,0,0,0,0,0,0,0,0,0,0,0,0,0,0,0,0,0,0,0,0,0,0,0,0,0,0,0,0,0,0,0,0],"id":0,"left_children":[1,3,5,7,9,11,13,15,17,19,21,23,-1,-1,-1,-1,-1,25,-1,27,29,31,-1,-1,-1,-1,-1,-1,33,35,37,39,-1,-1,-1,-1,-1,-1,-1,-1,-1],"loss_changes":[2.814495E8,5.522067E7,8.100912E6,4.725128E6,2.5901625E6,1.48462E6,1.10416E5,7.74184E5,7.43212E5,7.770893E5,5.275265E5,6.51135E4,0E0,0E0,0E0,0E0,0E0,7.714E4,0E0,6.1237938E4,1.1542616E5,5.705875E4,0E0,0E0,0E0,0E0,0E0,0E0,1.8201094E3,1.7711658E4,1.35510625E4,1.35625E3,0E0,0E0,0E0,0E0,0E0,0E0,0E0,0E0,0E0],"parents":[2147483647,0,0,1,1,2,2,3,3,4,4,5,5,6,6,7,7,8,8,9,9,10,10,11,11,17,17,19,19,20,20,21,21,28,28,29,29,30,30,31,31],"right_children":[2,4,6,8,10,12,14,16,18,20,22,24,-1,-1,-1,-1,-1,26,-1,28,30,32,-1,-1,-1,-1,-1,-1,34,36,38,40,-1,-1,-1,-1,-1,-1,-1,-1,-1],"split_conditions":[7.6915E2,4.1085E2,1.14312E3,2.514848E2,5.997E2,9.5E2,1.2279E3,1.8673E2,3.32875E2,5.077E2,6.892E2,7.975E2,1.5465892E1,1.9281841E1,2.2340542E1,-1.1521763E1,-9.511624E0,2.87337E2,-4.835719E0,4.585E2,5.648E2,6.403E2,5.7815213E0,6.8813095E0,1.0277624E1,-8.104295E0,-6.8799E0,-3.2497246E0,4.845E2,5.34175E2,5.75575E2,6.135E2,3.559812E0,-1.755258E0,-1.080428E0,-4.4370916E-1,2.8701854E-1,8.664624E-1,1.4234536E0,2.1840057E0,2.6782465E0],"split_indices":[3,3,1,9,3,0,3,9,6,3,3,0,0,0,0,0,0,3,0,0,1,3,0,0,0,0,0,0,2,6,3,2,0,0,0,0,0,0,0,0,0],"split_type":[0,0,0,0,0,0,0,0,0,0,0,0,0,0,0,0,0,0,0,0,0,0,0,0,0,0,0,0,0,0,0,0,0,0,0,0,0,0,0,0,0],"sum_hessian":[2.478E3,1.929E3,5.49E2,1.272E3,6.57E2,2.08E2,3.41E2,7.99E2,4.73E2,3.84E2,2.73E2,4.9E1,1.59E2,7.8E1,2.63E2,4.13E2,3.86E2,3.34E2,1.39E2,8.7E1,2.97E2,1.9E2,8.3E1,1.9E1,3E1,1.7E2,1.64E2,4.7E1,4E1,1.21E2,1.76E2,1.15E2,7.5E1,2.8E1,1.2E1,5E1,7.1E1,7.7E1,9.9E1,6.5E1,5E1],"tree_param":{"num_deleted":"0","num_feature":"14","num_nodes":"41","size_leaf_vector":"1"}},{"base_weights":[1.3644052E0,-1.7781789E2,6.0901E2,-2.9584714E2,4.8198593E1,4.5568124E2,7.0127936E2,-3.449433E2,-2.246034E2,-2.3718376E0,1.1974139E2,2.909869E2,1.5022096E1,1.9074795E1,2.1674927E1,-1.119572E1,-9.3264675E0,-2.479425E2,-4.6604495E0,-8.078647E1,2.2454248E1,9.0193535E1,1.825552E2,6.6533666E0,9.932071E0,-8.001545E0,-6.706972E0,-3.1340501E0,-5.0269176E1,-1.2278059E0,3.763848E1,7.509142E1,3.2949455E0,4.573354E0,5.8494563E0,-1.6578351E0,-9.8304254E-1,-5.3378797E-1,2.2825594E-1,8.6716026E-1,1.4280491E0,1.4488163E0,2.3015916E0],"categories":[],"categories_nodes":[],"categories_segments":[],"categories_sizes":[],"default_left":[0,0,0,0,0,0,0,0,0,0,0,0,0,0,0,0,0,0,0,0,0,0,0,0,0,0,0,0,0,0,0,0,0,0,0,0,0,0,0,0,0,0,0],"id":1,"left_children":[1,3,5,7,9,11,13,15,17,19,21,23,-1,-1,-1,-1,-1,25,-1,27,29,31,33,-1,-1,-1,-1,-1,35,37,39,41,-1,-1,-1,-1,-1,-1,-1,-1,-1,-1,-1],"loss_changes":[2.7252438E8,5.158004E7,7.744544E6,4.364712E6,2.4026025E6,1.464508E6,3.224E4,6.05584E5,8.036E5,7.61038E5,4.9393875E5,6.250225E4,0E0,0E0,0E0,0E0,0E0,1.17956E5,0E0,6.2682875E4,1.0684556E5,4.7805375E4,2.82875E3,0E0,0E0,0E0,0E0,0E0,1.9459062E3,1.7261258E4,1.4372828E4,1.0946875E3,0E0,0E0,0E0,0E0,0E0,0E0,0E0,0E0,0E0,0E0,0E0],"parents":[2147483647,0,0,1,1,2,2,3,3,4,4,5,5,6,6,7,7,8,8,9,9,10,10,11,11,17,17,19,19,20,20,21,21,22,22,28,28,29,29,30,30,31,31],"right_children":[2,4,6,8,10,12,14,16,18,20,22,24,-1,-1,-1,-1,-1,26,-1,28,30,32,34,-1,-1,-1,-1,-1,36,38,40,42,-1,-1,-1,-1,-1,-1,-1,-1,-1,-1,-1],"split_conditions":[7.7505E2,3.074956E2,1.14312E3,2.451326E2,4.7068677E2,7.902441E2,1.255E3,1.8673E2,3.32875E2,5.069E2,5.4601355E2,7.975E2,1.5022096E1,1.9074795E1,2.1674927E1,-1.119572E1,-9.3264675E0,2.9E2,-4.6604495E0,4.585E2,5.648E2,6.42E2,5.86354E2,6.6533666E0,9.932071E0,-8.001545E0,-6.706972E0,-3.1340501E0,3.8273364E2,5.37375E2,4.4870685E2,5.971E2,3.2949455E0,4.573354E0,5.8494563E0,-1.6578351E0,-9.8304254E-1,-5.3378797E-1,2.2825594E-1,8.6716026E-1,1.4280491E0,1.4488163E0,2.3015916E0],"split_indices":[1,4,1,9,4,4,1,9,6,0,4,0,0,0,0,0,0,1,0,0,1,1,4,0,0,0,0,0,4,1,4,6,0,0,0,0,0,0,0,0,0,0,0],"split_type":[0,0,0,0,0,0,0,0,0,0,0,0,0,0,0,0,0,0,0,0,0,0,0,0,0,0,0,0,0,0,0,0,0,0,0,0,0,0,0,0,0,0,0],"sum_hessian":[2.501E3,1.932E3,5.69E2,1.269E3,6.63E2,2.16E2,3.53E2,7.49E2,5.2E2,3.89E2,2.74E2,4.8E1,1.68E2,9.4E1,2.59E2,4.04E2,3.45E2,3.87E2,1.33E2,9.3E1,2.96E2,1.88E2,8.6E1,2E1,2.8E1,2.13E2,1.74E2,5.1E1,4.2E1,1.16E2,1.8E2,1.09E2,7.9E1,2.9E1,5.7E1,3.1E1,1.1E1,4E1,7.6E1,9.8E1,8.2E1,8E0,1.01E2],"tree_param":{"num_deleted":"0","num_feature":"14","num_nodes":"43","size_leaf_vector":"1"}},{"base_weights":[2.1502748E0,-1.7408514E2,5.9238055E2,-2.8572107E2,5.1401646E1,4.4967783E2,2.0524324E1,-3.3117728E2,-2.1080869E2,1.9872825E0,1.2001485E2,2.8783417E2,4.8832495E2,-1.08515835E1,-2.9885074E2,-2.3697647E2,-1.4902849E2,-7.63586E1,2.324961E1,9.0567245E1,1.75326E2,6.4404473E0,9.699418E0,1.2779437E1,1.5304606E1,-9.318231E0,-8.386414E0,-7.596276E0,-6.4053574E0,-4.752425E0,-3.8295593E0,-2.9484007E0,-5.135508E1,4.6923775E-2,3.7557674E1,7.6616684E1,3.2838054E0,4.4033437E0,5.649655E0,-1.6736761E0,-1.0498937E0,-4.4840938E-1,2.2037908E-1,8.114811E-1,1.3941201E0,2.01919E0,2.4773102E0],"categories":[],"categories_nodes":[],"categories_segments":[],"categories_sizes":[],"default_left":[0,0,0,0,0,0,0,0,0,0,0,0,0,0,0,0,0,0,0,0,0,0,0,0,0,0,0,0,0,0,0,0,0,0,0,0,0,0,0,0,0,0,0,0,0,0,0],"id":2,"left_children":[1,3,5,7,9,11,-1,13,15,17,19,21,23,-1,25,27,29,31,33,35,37,-1,-1,-1,-1,-1,-1,-1,-1,-1,-1,-1,39,41,43,45,-1,-1,-1,-1,-1,-1,-1,-1,-1,-1,-1],"loss_changes":[2.5786342E8,4.8068836E7,7.156464E6,4.278664E6,2.1459338E6,1.273028E6,0E0,6.74848E5,7.4876E5,6.164613E5,4.1574775E5,4.998025E4,2.9004E4,0E0,1.904E3,7.506E4,9.27125E3,3.825375E4,9.6606E4,3.773775E4,6.11975E3,0E0,0E0,0E0,0E0,0E0,0E0,0E0,0E0,0E0,0E0,0E0,8.764922E2,1.2367212E4,1.5601891E4,2.1325E2,0E0,0E0,0E0,0E0,0E0,0E0,0E0,0E0,0E0,0E0,0E0],"parents":[2147483647,0,0,1,1,2,2,3,3,4,4,5,5,7,7,8,8,9,9,10,10,11,11,12,12,14,14,15,15,16,16,17,17,18,18,19,19,20,20,32,32,33,33,34,34,35,35],"right_children":[2,4,6,8,10,12,-1,14,16,18,20,22,24,-1,26,28,30,32,34,36,38,-1,-1,-1,-1,-1,-1,-1,-1,-1,-1,-1,40,42,44,46,-1,-1,-1,-1,-1,-1,-1,-1,-1,-1,-1],"split_conditions":[7.6915E2,3.160708E2,1.1462E3,2.514848E2,4.759895E2,9.5E2,2.0524324E1,1.8673E2,3.32875E2,5.077E2,5.4601355E2,7.975E2,8.580644E2,-1.08515835E1,2.23833E2,2.875E2,3.87225E2,4.51E2,5.5615E2,6.403E2,7.1885E2,6.4404473E0,9.699418E0,1.2779437E1,1.5304606E1,-9.318231E0,-8.386414E0,-7.596276E0,-6.4053574E0,-4.752425E0,-3.8295593E0,-2.9484007E0,4.845E2,5.2265E2,5.78575E2,4.9290784E2,3.2838054E0,4.4033437E0,5.649655E0,-1.6736761E0,-1.0498937E0,-4.4840938E-1,2.2037908E-1,8.114811E-1,1.3941201E0,2.01919E0,2.4773102E0],"split_indices":[3,4,6,9,4,0,0,9,6,3,4,0,4,0,3,2,3,2,3,3,3,0,0,0,0,0,0,0,0,0,0,0,2,2,3,4,0,0,0,0,0,0,0,0,0,0,0],"split_type":[0,0,0,0,0,0,0,0,0,0,0,0,0,0,0,0,0,0,0,0,0,0,0,0,0,0,0,0,0,0,0,0,0,0,0,0,0,0,0,0,0,0,0,0,0,0,0],"sum_hessian":[2.477E3,1.908E3,5.69E2,1.276E3,6.32E2,2.25E2,3.44E2,7.92E2,4.84E2,3.68E2,2.64E2,4.5E1,1.8E2,4.02E2,3.9E2,3.38E2,1.46E2,7.8E1,2.9E2,1.74E2,9E1,1.7E1,2.8E1,5.2E1,1.28E2,2.33E2,1.57E2,1.94E2,1.44E2,9.7E1,4.9E1,4E1,3.8E1,1.11E2,1.79E2,1.03E2,7.1E1,3.2E1,5.8E1,2.8E1,1E1,3.6E1,7.5E1,8.4E1,9.5E1,4.5E1,5.8E1],"tree_param":{"num_deleted":"0","num_feature":"14","num_nodes":"47","size_leaf_vector":"1"}},{"base_weights":[2.7327213E-1,-1.7232968E2,5.6571655E2,-2.7895193E2,4.3361366E1,4.1750992E2,6.613966E2,-3.2651846E2,-2.1502457E2,-2.385422E0,1.0800507E2,2.6281866E2,1.4089226E1,1.7621202E1,2.038366E1,-1.0554509E1,-8.875613E0,-2.3643762E2,-1.509309E2,-7.690242E1,2.0133204E1,8.527528E1,4.9892397E0,6.250291E0,9.364961E0,-7.6494403E0,-6.4222393E0,-5.0834265E0,-4.156661E0,-2.9456358E0,-4.8187313E1,-1.6684645E0,3.505989E1,2.0411885E0,1.00451706E2,-1.5875858E0,-9.3992436E-1,-4.154092E-1,2.2469863E-1,7.6141256E-1,1.2987124E0,2.65849E0,3.3154423E0],"categories":[],"categories_nodes":[],"categories_segments":[],"categories_sizes":[],"default_left":[0,0,0,0,0,0,0,0,0,0,0,0,0,0,0,0,0,0,0,0,0,0,0,0,0,0,0,0,0,0,0,0,0,0,0,0,0,0,0,0,0,0,0],"id":3,"left_children":[1,3,5,7,9,11,13,15,17,19,21,23,-1,-1,-1,-1,-1,25,27,29,31,33,-1,-1,-1,-1,-1,-1,-1,-1,35,37,39,-1,41,-1,-1,-1,-1,-1,-1,-1,-1],"loss_changes":[2.4496878E8,4.4236236E7,8.04776E6,3.843304E6,1.8840209E6,1.755528E6,7.5472E4,4.6688E5,7.21902E5,6.291279E5,3.3567425E5,9.89425E4,0E0,0E0,0E0,0E0,0E0,1.1627E5,8.833E3,4.844422E4,9.378139E4,4.3387875E4,0E0,0E0,0E0,0E0,0E0,0E0,0E0,0E0,1.4529609E3,1.3264948E4,1.2524344E4,0E0,2.1165E3,0E0,0E0,0E0,0E0,0E0,0E0,0E0,0E0],"parents":[2147483647,0,0,1,1,2,2,3,3,4,4,5,5,6,6,7,7,8,8,9,9,10,10,11,11,17,17,18,18,19,19,20,20,21,21,30,30,31,31,32,32,34,34],"right_children":[2,4,6,8,10,12,14,16,18,20,22,24,-1,-1,-1,-1,-1,26,28,30,32,34,-1,-1,-1,-1,-1,-1,-1,-1,36,38,40,-1,42,-1,-1,-1,-1,-1,-1,-1,-1],"split_conditions":[7.55875E2,4.1085E2,1.14312E3,2.419E2,5.997E2,9.5395E2,1.2279E3,1.8E2,3.26575E2,5.077E2,5.4601355E2,7.975E2,1.4089226E1,1.7621202E1,2.038366E1,-1.0554509E1,-8.875613E0,2.80212E2,2.7632318E2,4.585E2,5.5615E2,5.027428E2,4.9892397E0,6.250291E0,9.364961E0,-7.6494403E0,-6.4222393E0,-5.0834265E0,-4.156661E0,-2.9456358E0,4.93025E2,5.275E2,5.75575E2,2.0411885E0,6.551E2,-1.5875858E0,-9.3992436E-1,-4.154092E-1,2.2469863E-1,7.6141256E-1,1.2987124E0,2.65849E0,3.3154423E0],"split_indices":[3,3,1,3,3,3,3,2,3,3,4,0,0,0,0,0,0,3,4,0,3,4,0,0,0,0,0,0,0,0,3,2,3,0,1,0,0,0,0,0,0,0,0],"split_type":[0,0,0,0,0,0,0,0,0,0,0,0,0,0,0,0,0,0,0,0,0,0,0,0,0,0,0,0,0,0,0,0,0,0,0,0,0,0,0,0,0,0,0],"sum_hessian":[2.508E3,1.922E3,5.86E2,1.286E3,6.36E2,2.32E2,3.54E2,7.35E2,5.51E2,3.73E2,2.63E2,6E1,1.72E2,7.6E1,2.78E2,3.97E2,3.38E2,4.11E2,1.4E2,8.6E1,2.87E2,1.91E2,7.2E1,3.1E1,2.9E1,2.19E2,1.92E2,5.1E1,8.9E1,4.8E1,3.8E1,1.17E2,1.7E2,9.2E1,9.9E1,2.8E1,1E1,5E1,6.7E1,8E1,9E1,5E1,4.9E1],"tree_param":{"num_deleted":"0","num_feature":"14","num_nodes":"43","size_leaf_vector":"1"}},{"base_weights":[2.2570276E0,-1.6442436E2,5.4897955E2,-2.7083917E2,4.4047382E1,4.053068E2,6.397075E2,-3.184587E2,-2.1079047E2,-1.2718662E0,1.0756645E2,2.5681412E2,1.3704337E1,1.6980663E1,1.9732521E1,-1.0308933E1,-8.767069E0,-2.3540018E2,-1.5314252E2,-7.516528E1,2.0748678E1,8.28967E1,1.6185172E2,6.0461397E0,9.216444E0,-7.52535E0,-6.3858533E0,-5.421017E0,-4.121957E0,-2.9123547E0,-4.6990295E1,3.0239112E0,3.77394E1,7.068205E1,3.0690858E0,3.8755767E0,5.1249685E0,-1.543122E0,-9.176988E-1,-4.1364598E-1,3.3168018E-1,8.0830675E-1,1.2875906E0,1.8331395E0,2.2912946E0],"categories":[],"categories_nodes":[],"categories_segments":[],"categories_sizes":[],"default_left":[0,0,0,0,0,0,0,0,0,0,0,0,0,0,0,0,0,0,0,0,0,0,0,0,0,0,0,0,0,0,0,0,0,0,0,0,0,0,0,0,0,0,0,0,0],"id":4,"left_children":[1,3,5,7,9,11,13,15,17,19,21,23,-1,-1,-1,-1,-1,25,27,29,31,33,35,-1,-1,-1,-1,-1,-1,-1,37,39,41,43,-1,-1,-1,-1,-1,-1,-1,-1,-1,-1,-1],"loss_changes":[2.2700018E8,4.2362108E7,7.327168E6,3.547264E6,1.859736E6,1.62644E6,9.968E4,3.63624E5,7.6126E5,6.1663106E5,3.46829E5,1.08028E5,0E0,0E0,0E0,0E0,0E0,8.306E4,4.936425E4,4.9152438E4,8.782359E4,3.7095375E4,2.2795E3,0E0,0E0,0E0,0E0,0E0,0E0,0E0,1.3438984E3,1.9597691E4,7.1765E3,1.7685625E3,0E0,0E0,0E0,0E0,0E0,0E0,0E0,0E0,0E0,0E0,0E0],"parents":[2147483647,0,0,1,1,2,2,3,3,4,4,5,5,6,6,7,7,8,8,9,9,10,10,11,11,17,17,18,18,19,19,20,20,21,21,22,22,30,30,31,31,32,32,33,33],"right_children":[2,4,6,8,10,12,14,16,18,20,22,24,-1,-1,-1,-1,-1,26,28,30,32,34,36,-1,-1,-1,-1,-1,-1,-1,38,40,42,44,-1,-1,-1,-1,-1,-1,-1,-1,-1,-1,-1],"split_conditions":[7.55875E2,4.1085E2,1.14312E3,2.3755E2,5.997E2,9.5E2,1.2279E3,1.76283E2,3.1675E2,5.077E2,6.755E2,7.975E2,1.3704337E1,1.6980663E1,1.9732521E1,-1.0308933E1,-8.767069E0,2.74225E2,3.53095E2,4.585E2,5.6555E2,6.403E2,7.0745E2,6.0461397E0,9.216444E0,-7.52535E0,-6.3858533E0,-5.421017E0,-4.121957E0,-2.9123547E0,4.845E2,5.34575E2,5.75575E2,6.15375E2,3.0690858E0,3.8755767E0,5.1249685E0,-1.543122E0,-9.176988E-1,-4.1364598E-1,3.3168018E-1,8.0830675E-1,1.2875906E0,1.8331395E0,2.2912946E0],"split_indices":[3,3,1,3,3,0,3,3,3,3,3,0,0,0,0,0,0,3,9,0,3,3,3,0,0,0,0,0,0,0,2,3,3,3,0,0,0,0,0,0,0,0,0,0,0],"split_type":[0,0,0,0,0,0,0,0,0,0,0,0,0,0,0,0,0,0,0,0,0,0,0,0,0,0,0,0,0,0,0,0,0,0,0,0,0,0,0,0,0,0,0,0,0],"sum_hessian":[2.489E3,1.908E3,5.81E2,1.263E3,6.45E2,2.27E2,3.54E2,7.02E2,5.61E2,3.77E2,2.68E2,6E1,1.67E2,7.6E1,2.78E2,3.52E2,3.5E2,3.91E2,1.7E2,8.6E1,2.91E2,1.86E2,8.2E1,3.1E1,2.9E1,2.26E2,1.65E2,5.8E1,1.12E2,4.7E1,3.9E1,1.43E2,1.48E2,1.17E2,6.9E1,2.1E1,6.1E1,2.9E1,1E1,4.6E1,9.7E1,5E1,9.8E1,4.8E1,6.9E1],"tree_param":{"num_deleted":"0","num_feature":"14","num_nodes":"45","size_leaf_vector":"1"}},{"base_weights":[-1.6543263E0,-1.6709203E2,5.144598E2,-2.641655E2,3.1826464E1,3.4434006E2,6.042111E2,-3.117337E2,-2.0861147E2,-2.9796127E1,7.3538765E1,6.0162725E0,4.1039316E2,1.5388345E1,1.8981424E1,-1.0094915E1,-8.628802E0,-2.3055547E2,-1.5029277E2,-8.228758E1,7.100946E-1,5.0440994E1,1.1735528E2,1.0250601E1,1.2999387E1,-7.382332E0,-6.2564955E0,-5.246369E0,-4.059938E0,-2.897742E0,-1.5169232E0,-1.9054693E1,1.0046993E1,3.6380787E1,6.749379E1,2.9424772E0,4.335903E0,-8.063276E-1,-3.866488E-1,-5.1078092E-2,3.7556744E-1,8.435604E-1,1.2627211E0,1.775502E0,2.189192E0],"categories":[],"categories_nodes":[],"categories_segments":[],"categories_sizes":[],"default_left":[0,0,0,0,0,0,0,0,0,0,0,0,0,0,0,0,0,0,0,0,0,0,0,0,0,0,0,0,0,0,0,0,0,0,0,0,0,0,0,0,0,0,0,0,0],"id":5,"left_children":[1,3,5,7,9,11,13,15,17,19,21,-1,23,-1,-1,-1,-1,25,27,29,31,33,35,-1,-1,-1,-1,-1,-1,-1,-1,37,39,41,43,-1,-1,-1,-1,-1,-1,-1,-1,-1,-1],"loss_changes":[2.1457238E8,3.6754784E7,9.105712E6,3.314856E6,1.6087036E6,1.940832E6,7.108E5,3.13336E5,7.2424E5,4.0519138E5,3.7158038E5,0E0,8.0278E4,0E0,0E0,0E0,0E0,9.5214E4,3.702825E4,3.7316188E4,2.9902674E4,5.6526938E4,5.2861875E4,0E0,0E0,0E0,0E0,0E0,0E0,0E0,0E0,2.1620273E3,3.216166E3,5.279578E3,6.9003125E2,0E0,0E0,0E0,0E0,0E0,0E0,0E0,0E0,0E0,0E0],"parents":[2147483647,0,0,1,1,2,2,3,3,4,4,5,5,6,6,7,7,8,8,9,9,10,10,12,12,17,17,18,18,19,19,20,20,21,21,22,22,31,31,32,32,33,33,34,34],"right_children":[2,4,6,8,10,12,14,16,18,20,22,-1,24,-1,-1,-1,-1,26,28,30,32,34,36,-1,-1,-1,-1,-1,-1,-1,-1,38,40,42,44,-1,-1,-1,-1,-1,-1,-1,-1,-1,-1],"split_conditions":[7.35375E2,3.9505E2,1.0835E3,2.32545E2,5.6555E2,8.88725E2,1.20253E3,1.721E2,3.1675E2,4.93025E2,6.2925E2,6.0162725E0,8.2636035E2,1.5388345E1,1.8981424E1,-1.0094915E1,-8.628802E0,2.71837E2,3.53095E2,4.51E2,5.2265E2,5.997E2,5.4601355E2,1.0250601E1,1.2999387E1,-7.382332E0,-6.2564955E0,-5.246369E0,-4.059938E0,-2.897742E0,-1.5169232E0,5.0625E2,4.1651364E2,5.78575E2,4.8909872E2,2.9424772E0,4.335903E0,-8.063276E-1,-3.866488E-1,-5.1078092E-2,3.7556744E-1,8.435604E-1,1.2627211E0,1.775502E0,2.189192E0],"split_indices":[3,2,3,3,3,3,3,3,3,3,2,0,4,0,0,0,0,3,9,2,2,3,4,0,0,0,0,0,0,0,0,2,4,3,4,0,0,0,0,0,0,0,0,0,0],"split_type":[0,0,0,0,0,0,0,0,0,0,0,0,0,0,0,0,0,0,0,0,0,0,0,0,0,0,0,0,0,0,0,0,0,0,0,0,0,0,0,0,0,0,0,0,0],"sum_hessian":[2.511E3,1.902E3,6.09E2,1.278E3,6.24E2,2.12E2,3.97E2,6.86E2,5.92E2,2.52E2,3.72E2,6.8E1,1.44E2,9.9E1,2.98E2,3.32E2,3.54E2,4.28E2,1.64E2,9.2E1,1.6E2,2.45E2,1.27E2,4E1,1.04E2,2.45E2,1.83E2,5.8E1,1.06E2,6.2E1,3E1,5.1E1,1.09E2,1.36E2,1.09E2,7.7E1,5E1,2.1E1,3E1,1.9E1,9E1,5.8E1,7.8E1,4.8E1,6.1E1],"tree_param":{"num_deleted":"0","num_feature":"14","num_nodes":"45","size_leaf_vector":"1"}},{"base_weights":[-1.4399658E0,-1.5848727E2,5.1361304E2,-2.543356E2,3.788785E1,3.6629047E2,6.012431E2,-2.9603906E2,-1.9201399E2,-4.949223E0,9.114589E1,2.1982722E2,4.210982E2,1.5943919E1,1.863722E1,-3.196319E2,-7.9762225E0,-2.1276509E2,-1.3390295E2,-6.95735E1,1.6447208E1,7.028635E1,1.3980907E2,5.6253E0,8.219812E0,1.1055541E1,1.33608465E1,-1.0121363E1,-9.158248E0,-6.8201723E0,-5.6970315E0,-4.2254333E0,-3.4353063E0,-2.658556E0,-4.498012E1,-1.1559902E-1,2.9517965E1,5.7863346E1,2.6254895E0,3.4697733E0,4.7015905E0,-1.4824759E0,-9.15362E-1,-3.6861366E-1,2.2986773E-1,7.352183E-1,1.1460243E0,1.3199192E0,1.8689522E0],"categories":[],"categories_nodes":[],"categories_segments":[],"categories_sizes":[],"default_left":[0,0,0,0,0,0,0,0,0,0,0,0,0,0,0,0,0,0,0,0,0,0,0,0,0,0,0,0,0,0,0,0,0,0,0,0,0,0,0,0,0,0,0,0,0,0,0,0,0],"id":6,"left_children":[1,3,5,7,9,11,13,15,17,19,21,23,25,-1,-1,27,-1,29,31,33,35,37,39,-1,-1,-1,-1,-1,-1,-1,-1,-1,-1,-1,41,43,45,47,-1,-1,-1,-1,-1,-1,-1,-1,-1,-1,-1],"loss_changes":[2.018153E8,3.5997732E7,7.30624E6,3.282912E6,1.433182E6,1.673442E6,1.7776E5,4.61584E5,5.96148E5,4.8371672E5,2.74399E5,5.715525E4,3.8724E4,0E0,0E0,5.552E3,0E0,8.3452E4,2.592E3,3.6763156E4,5.6939867E4,3.7317562E4,1.57705E4,0E0,0E0,0E0,0E0,0E0,0E0,0E0,0E0,0E0,0E0,0E0,1.0592812E3,1.1170347E4,5.459328E3,4.515625E3,0E0,0E0,0E0,0E0,0E0,0E0,0E0,0E0,0E0,0E0,0E0],"parents":[2147483647,0,0,1,1,2,2,3,3,4,4,5,5,6,6,7,7,8,8,9,9,10,10,11,11,12,12,15,15,17,17,18,18,19,19,20,20,21,21,22,22,34,34,35,35,36,36,37,37],"right_children":[2,4,6,8,10,12,14,16,18,20,22,24,26,-1,-1,28,-1,30,32,34,36,38,40,-1,-1,-1,-1,-1,-1,-1,-1,-1,-1,-1,42,44,46,48,-1,-1,-1,-1,-1,-1,-1,-1,-1,-1,-1],"split_conditions":[6.0690924E2,3.074956E2,9.323153E2,2.451326E2,5.99E2,7.549546E2,1.2174E3,1.89595E2,3.32875E2,4.99225E2,5.362296E2,7.975E2,8.580644E2,1.5943919E1,1.863722E1,1.52107E2,-7.9762225E0,2.85E2,2.9029074E2,4.51E2,5.648E2,5.027428E2,5.745275E2,5.6253E0,8.219812E0,1.1055541E1,1.33608465E1,-1.0121363E1,-9.158248E0,-6.8201723E0,-5.6970315E0,-4.2254333E0,-3.4353063E0,-2.658556E0,3.8273364E2,5.41925E2,4.4870685E2,5.925E2,2.6254895E0,3.4697733E0,4.7015905E0,-1.4824759E0,-9.15362E-1,-3.6861366E-1,2.2986773E-1,7.352183E-1,1.1460243E0,1.3199192E0,1.8689522E0],"split_indices":[4,4,4,9,1,4,2,9,6,2,4,0,4,0,0,6,0,2,4,2,1,4,4,0,0,0,0,0,0,0,0,0,0,0,4,1,4,2,0,0,0,0,0,0,0,0,0,0,0],"split_type":[0,0,0,0,0,0,0,0,0,0,0,0,0,0,0,0,0,0,0,0,0,0,0,0,0,0,0,0,0,0,0,0,0,0,0,0,0,0,0,0,0,0,0,0,0,0,0,0,0],"sum_hessian":[2.493E3,1.911E3,5.82E2,1.284E3,6.27E2,2.19E2,3.63E2,7.67E2,5.17E2,3.48E2,2.79E2,6.1E1,1.58E2,8.7E1,2.76E2,4.25E2,3.42E2,3.79E2,1.38E2,8.6E1,2.62E2,1.97E2,8.2E1,4.1E1,2E1,5.5E1,1.03E2,1.8E2,2.45E2,2.26E2,1.53E2,9.7E1,4.1E1,4.7E1,3.9E1,1.16E2,1.46E2,1.17E2,8E1,3.7E1,4.5E1,2.8E1,1.1E1,4.5E1,7.1E1,9.5E1,5.1E1,3.1E1,8.6E1],"tree_param":{"num_deleted":"0","num_feature":"14","num_nodes":"49","size_leaf_vector":"1"}},{"base_weights":[-1.9299269E0,-1.5362582E2,4.902536E2,-2.4691243E2,3.568247E1,3.3962076E2,5.75657E2,-2.8225528E2,-1.785467E2,-7.6204705E0,8.4823456E1,2.0934602E2,4.002322E2,1.4633842E1,1.791937E1,-3.0861765E2,-2.509487E2,-1.9929214E2,-1.2989383E2,-6.747537E1,1.4284817E1,6.3126118E1,1.2528807E2,5.3920355E0,8.013876E0,1.0491056E1,1.26359825E1,-9.834428E0,-8.843721E0,-7.8561673E0,-7.0884995E0,-6.3445764E0,-5.4219813E0,-4.225949E0,-3.5406103E0,-2.611474E0,-4.2566723E1,-9.050937E-1,2.7327688E1,5.044927E1,2.298708E0,3.1059508E0,4.3632298E0,-1.4531969E0,-9.3240887E-1,-3.104391E-1,2.614859E-1,6.219437E-1,9.7187483E-1,1.2555001E0,1.7041703E0],"categories":[],"categories_nodes":[],"categories_segments":[],"categories_sizes":[],"default_left":[0,0,0,0,0,0,0,0,0,0,0,0,0,0,0,0,0,0,0,0,0,0,0,0,0,0,0,0,0,0,0,0,0,0,0,0,0,0,0,0,0,0,0,0,0,0,0,0,0,0,0],"id":7,"left_children":[1,3,5,7,9,11,13,15,17,19,21,23,25,-1,-1,27,29,31,33,35,37,39,41,-1,-1,-1,-1,-1,-1,-1,-1,-1,-1,-1,-1,-1,43,45,47,49,-1,-1,-1,-1,-1,-1,-1,-1,-1,-1,-1],"loss_changes":[1.8792544E8,3.3986508E7,7.433184E6,3.064144E6,1.3540222E6,1.629676E6,4.25944E5,6.22416E5,4.20234E5,4.4543994E5,2.5372725E5,7.347225E4,8.448E3,0E0,0E0,2.44E4,1.082E3,3.1481E4,9.61E2,4.0662188E4,4.9356625E4,2.9671188E4,3.0103125E4,0E0,0E0,0E0,0E0,0E0,0E0,0E0,0E0,0E0,0E0,0E0,0E0,0E0,1.3278672E3,1.06291045E4,3.808086E3,3.307375E3,0E0,0E0,0E0,0E0,0E0,0E0,0E0,0E0,0E0,0E0,0E0],"parents":[2147483647,0,0,1,1,2,2,3,3,4,4,5,5,6,6,7,7,8,8,9,9,10,10,11,11,12,12,15,15,16,16,17,17,18,18,19,19,20,20,21,21,22,22,36,36,37,37,38,38,39,39],"right_children":[2,4,6,8,10,12,14,16,18,20,22,24,26,-1,-1,28,30,32,34,36,38,40,42,-1,-1,-1,-1,-1,-1,-1,-1,-1,-1,-1,-1,-1,44,46,48,50,-1,-1,-1,-1,-1,-1,-1,-1,-1,-1,-1],"split_conditions":[6.0533936E2,4.1045E2,1.10285E3,2.625E2,5.87875E2,9.01E2,1.20253E3,1.9568E2,3.32875E2,5.077E2,6.53175E2,7.975E2,1.0355E3,1.4633842E1,1.791937E1,1.52137E2,2.3025E2,2.97975E2,3.7925E2,4.585E2,5.648E2,4.9290784E2,6.892E2,5.3920355E0,8.013876E0,1.0491056E1,1.26359825E1,-9.834428E0,-8.843721E0,-7.8561673E0,-7.0884995E0,-6.3445764E0,-5.4219813E0,-4.225949E0,-3.5406103E0,-2.611474E0,4.908E2,4.1651364E2,5.706E2,5.925E2,2.298708E0,3.1059508E0,4.3632298E0,-1.4531969E0,-9.3240887E-1,-3.104391E-1,2.614859E-1,6.219437E-1,9.7187483E-1,1.2555001E0,1.7041703E0],"split_indices":[4,6,3,1,3,2,3,9,6,3,3,0,1,0,0,3,3,3,3,0,1,4,3,0,0,0,0,0,0,0,0,0,0,0,0,0,8,4,3,2,0,0,0,0,0,0,0,0,0,0,0],"split_type":[0,0,0,0,0,0,0,0,0,0,0,0,0,0,0,0,0,0,0,0,0,0,0,0,0,0,0,0,0,0,0,0,0,0,0,0,0,0,0,0,0,0,0,0,0,0,0,0,0,0,0],"sum_hessian":[2.515E3,1.923E3,5.92E2,1.288E3,6.35E2,2.16E2,3.76E2,8.47E2,4.41E2,3.38E2,2.97E2,7E1,1.46E2,7.9E1,2.97E2,4.55E2,3.92E2,3.07E2,1.34E2,9E1,2.48E2,1.95E2,1.02E2,4.9E1,2.1E1,4.8E1,9.8E1,1.81E2,2.74E2,2.15E2,1.77E2,1.79E2,1.28E2,6.4E1,7E1,4.9E1,4.1E1,1.15E2,1.33E2,1.03E2,9.2E1,5.2E1,5E1,2.5E1,1.6E1,5.8E1,5.7E1,6E1,7.3E1,4.7E1,5.6E1],"tree_param":{"num_deleted":"0","num_feature":"14","num_nodes":"51","size_leaf_vector":"1"}},{"base_weights":[1.3213588E0,-1.4784578E2,4.828587E2,-2.3887024E2,3.5574078E1,3.5429645E2,5.667444E2,-2.7275275E2,-1.7102269E2,-8.244979E0,8.388864E1,2.0553209E2,4.010898E2,1.5790493E1,1.7825733E1,-2.9884192E2,-2.4282416E2,-1.9237567E2,-1.262101E2,-6.551713E1,1.329495E1,6.336016E1,1.32768E2,5.2937446E0,7.6021004E0,1.0431181E1,1.2690052E1,-9.491999E0,-8.54503E0,-7.6262403E0,-6.855878E0,-6.120344E0,-5.2546034E0,-3.986308E0,-3.2331212E0,-2.5058095E0,-4.3051773E1,-5.6905895E-1,2.5971966E1,5.276717E1,2.4539185E0,3.2899797E0,4.4816613E0,-1.4141529E0,-8.063401E-1,-4.028502E-1,1.7847519E-1,5.405668E-1,9.155572E-1,1.2727554E0,1.7869456E0],"categories":[],"categories_nodes":[],"categories_segments":[],"categories_sizes":[],"default_left":[0,0,0,0,0,0,0,0,0,0,0,0,0,0,0,0,0,0,0,0,0,0,0,0,0,0,0,0,0,0,0,0,0,0,0,0,0,0,0,0,0,0,0,0,0,0,0,0,0,0,0],"id":8,"left_children":[1,3,5,7,9,11,13,15,17,19,21,23,25,-1,-1,27,29,31,33,35,37,39,41,-1,-1,-1,-1,-1,-1,-1,-1,-1,-1,-1,-1,-1,43,45,47,49,-1,-1,-1,-1,-1,-1,-1,-1,-1,-1,-1],"loss_changes":[1.8101003E8,3.2131008E7,6.226784E6,2.909664E6,1.353518E6,1.574324E6,8.5264E4,5.95808E5,3.88137E5,4.1537344E5,2.9662725E5,3.740175E4,6.3476E4,0E0,0E0,2.1296E4,7.648E3,2.2381E4,3.136E3,3.3627E4,4.3074574E4,3.78695E4,1.779075E4,0E0,0E0,0E0,0E0,0E0,0E0,0E0,0E0,0E0,0E0,0E0,0E0,0E0,1.5751719E3,9.970622E3,4.0785E3,7.3151562E3,0E0,0E0,0E0,0E0,0E0,0E0,0E0,0E0,0E0,0E0,0E0],"parents":[2147483647,0,0,1,1,2,2,3,3,4,4,5,5,6,6,7,7,8,8,9,9,10,10,11,11,12,12,15,15,16,16,17,17,18,18,19,19,20,20,21,21,22,22,36,36,37,37,38,38,39,39],"right_children":[2,4,6,8,10,12,14,16,18,20,22,24,26,-1,-1,28,30,32,34,36,38,40,42,-1,-1,-1,-1,-1,-1,-1,-1,-1,-1,-1,-1,-1,44,46,48,50,-1,-1,-1,-1,-1,-1,-1,-1,-1,-1,-1],"split_conditions":[7.565E2,4.1085E2,9.4567236E2,2.64475E2,5.87875E2,9.1135E2,1.2571E3,1.95812E2,3.32875E2,5.077E2,5.362296E2,8.124E2,8.580644E2,1.5790493E1,1.7825733E1,1.55325E2,2.3025E2,2.97975E2,3.87225E2,4.51E2,5.5615E2,5.027428E2,7.0745E2,5.2937446E0,7.6021004E0,1.0431181E1,1.2690052E1,-9.491999E0,-8.54503E0,-7.6262403E0,-6.855878E0,-6.120344E0,-5.2546034E0,-3.986308E0,-3.2331212E0,-2.5058095E0,4.93025E2,5.2265E2,5.693E2,6.046E2,2.4539185E0,3.2899797E0,4.4816613E0,-1.4141529E0,-8.063401E-1,-4.028502E-1,1.7847519E-1,5.405668E-1,9.155572E-1,1.2727554E0,1.7869456E0],"split_indices":[1,3,4,1,3,3,3,6,6,3,4,1,4,0,0,3,3,3,3,2,3,4,3,0,0,0,0,0,0,0,0,0,0,0,0,0,3,2,3,3,0,0,0,0,0,0,0,0,0,0,0],"split_type":[0,0,0,0,0,0,0,0,0,0,0,0,0,0,0,0,0,0,0,0,0,0,0,0,0,0,0,0,0,0,0,0,0,0,0,0,0,0,0,0,0,0,0,0,0,0,0,0,0,0,0],"sum_hessian":[2.518E3,1.923E3,5.95E2,1.285E3,6.38E2,2.37E2,3.58E2,8.55E2,4.3E2,3.35E2,3.03E2,5.8E1,1.79E2,1.53E2,2.05E2,4.52E2,4.03E2,2.89E2,1.41E2,9.1E1,2.44E2,2.15E2,8.8E1,3.9E1,1.9E1,5.7E1,1.22E2,1.91E2,2.61E2,2.15E2,1.88E2,1.66E2,1.23E2,9.9E1,4.2E1,4.9E1,4.2E1,1.17E2,1.27E2,1.39E2,7.6E1,4E1,4.8E1,3.2E1,1E1,3.9E1,7.8E1,4.8E1,7.9E1,5.8E1,8.1E1],"tree_param":{"num_deleted":"0","num_feature":"14","num_nodes":"51","size_leaf_vector":"1"}},{"base_weights":[8.631209E-1,-1.4048288E2,4.7815323E2,-2.3137956E2,4.01153E1,3.634743E2,5.539865E2,-2.6579596E2,-1.6583865E2,1.2110208E0,9.4897316E1,2.331675E2,3.949549E2,1.554715E1,1.7454714E1,-2.9098923E2,-2.3713226E2,-1.8830937E2,-1.2128708E2,-5.5550182E1,1.9204256E1,7.196007E1,1.4233546E2,5.232511E0,7.9085674E0,1.0452604E1,1.2477589E1,-9.247349E0,-8.342681E0,-7.4597325E0,-6.744967E0,-5.969413E0,-5.112103E0,-3.999356E0,-3.2684598E0,-2.3515382E0,-3.769938E1,4.4433885E0,3.2469387E1,5.9420105E1,2.6267247E0,3.4795585E0,4.591695E0,-1.3455156E0,-7.097241E-1,-1.999389E-1,3.2112807E-1,7.3847723E-1,1.1255637E0,7.2883666E-1,1.7961197E0],"categories":[],"categories_nodes":[],"categories_segments":[],"categories_sizes":[],"default_left":[0,0,0,0,0,0,0,0,0,0,0,0,0,0,0,0,0,0,0,0,0,0,0,0,0,0,0,0,0,0,0,0,0,0,0,0,0,0,0,0,0,0,0,0,0,0,0,0,0,0,0],"id":9,"left_children":[1,3,5,7,9,11,13,15,17,19,21,23,25,-1,-1,27,29,31,33,35,37,39,41,-1,-1,-1,-1,-1,-1,-1,-1,-1,-1,-1,-1,-1,43,45,47,49,-1,-1,-1,-1,-1,-1,-1,-1,-1,-1,-1],"loss_changes":[1.6771283E8,3.1494736E7,4.738248E6,2.834168E6,1.370282E6,8.473E5,3.6824E4,5.33976E5,4.1965E5,3.8610356E5,2.802805E5,3.8105E4,3.3618E4,0E0,0E0,1.2224E4,2.32E2,2.1886E4,7.87925E3,3.413772E4,5.605172E4,3.0394812E4,6.542875E3,0E0,0E0,0E0,0E0,0E0,0E0,0E0,0E0,0E0,0E0,0E0,0E0,0E0,4.2609766E3,9.599141E3,5.0644062E3,1.9140625E2,0E0,0E0,0E0,0E0,0E0,0E0,0E0,0E0,0E0,0E0,0E0],"parents":[2147483647,0,0,1,1,2,2,3,3,4,4,5,5,6,6,7,7,8,8,9,9,10,10,11,11,12,12,15,15,16,16,17,17,18,18,19,19,20,20,21,21,22,22,36,36,37,37,38,38,39,39],"right_children":[2,4,6,8,10,12,14,16,18,20,22,24,26,-1,-1,28,30,32,34,36,38,40,42,-1,-1,-1,-1,-1,-1,-1,-1,-1,-1,-1,-1,-1,44,46,48,50,-1,-1,-1,-1,-1,-1,-1,-1,-1,-1,-1],"split_conditions":[7.6915E2,3.160708E2,1.15382E3,2.625E2,4.7068677E2,9.5395E2,1.26403E3,1.9425E2,3.35075E2,5.0625E2,5.4601355E2,8.124E2,1.028E3,1.554715E1,1.7454714E1,1.52137E2,2.23833E2,2.97975E2,3.7925E2,4.56125E2,5.6555E2,6.42E2,7.1885E2,5.232511E0,7.9085674E0,1.0452604E1,1.2477589E1,-9.247349E0,-8.342681E0,-7.4597325E0,-6.744967E0,-5.969413E0,-5.112103E0,-3.999356E0,-3.2684598E0,-2.3515382E0,4.93025E2,4.1651364E2,5.78575E2,5.73025E2,2.6267247E0,3.4795585E0,4.591695E0,-1.3455156E0,-7.097241E-1,-1.999389E-1,3.2112807E-1,7.3847723E-1,1.1255637E0,7.2883666E-1,1.7961197E0],"split_indices":[3,4,3,1,4,3,3,3,3,2,4,1,2,0,0,3,3,3,3,8,3,1,3,0,0,0,0,0,0,0,0,0,0,0,0,0,3,4,3,7,0,0,0,0,0,0,0,0,0,0,0],"split_type":[0,0,0,0,0,0,0,0,0,0,0,0,0,0,0,0,0,0,0,0,0,0,0,0,0,0,0,0,0,0,0,0,0,0,0,0,0,0,0,0,0,0,0,0,0,0,0,0,0,0,0],"sum_hessian":[2.484E3,1.917E3,5.67E2,1.275E3,6.42E2,2.28E2,3.39E2,8.34E2,4.41E2,3.76E2,2.66E2,4.6E1,1.82E2,1.57E2,1.82E2,4.39E2,3.95E2,2.91E2,1.5E2,9E1,2.86E2,1.81E2,8.5E1,1.8E1,2.8E1,6.2E1,1.2E2,1.78E2,2.61E2,1.94E2,2.01E2,1.76E2,1.15E2,7.1E1,7.9E1,3.8E1,5.2E1,1.36E2,1.5E2,1.03E2,7.8E1,2.8E1,5.7E1,3.3E1,1.9E1,4.9E1,8.7E1,6.1E1,8.9E1,2E0,1.01E2],"tree_param":{"num_deleted":"0","num_feature":"14","num_nodes":"51","size_leaf_vector":"1"}},{"base_weights":[2.5173674E0,-1.3538824E2,4.634775E2,-2.2466946E2,4.131067E1,3.497425E2,5.377422E2,-2.5610757E2,-1.5851678E2,3.8615577E0,9.445431E1,2.2535423E2,3.848146E2,1.5070042E1,1.6896254E1,-2.8147418E2,-2.2811308E2,-1.7842223E2,-1.1559182E2,-4.9485455E1,2.0830635E1,7.136549E1,1.3832535E2,5.201654E0,7.699199E0,1.0416702E1,1.2301061E1,-8.983158E0,-8.077152E0,-7.1793137E0,-6.4519744E0,-5.634819E0,-4.8260612E0,-3.6672213E0,-3.0205026E0,-6.998555E1,-2.6519014E1,5.936701E0,3.2307316E1,6.0548298E1,2.5889888E0,3.4506273E0,4.4370284E0,-2.3679483E0,-1.6747537E0,-1.09646E0,-5.5436766E-1,-1.6580193E-1,3.323967E-1,7.4396133E-1,1.1226258E0,1.5573068E0,1.9274747E0],"categories":[],"categories_nodes":[],"categories_segments":[],"categories_sizes":[],"default_left":[0,0,0,0,0,0,0,0,0,0,0,0,0,0,0,0,0,0,0,0,0,0,0,0,0,0,0,0,0,0,0,0,0,0,0,0,0,0,0,0,0,0,0,0,0,0,0,0,0,0,0,0,0],"id":10,"left_children":[1,3,5,7,9,11,13,15,17,19,21,23,25,-1,-1,27,29,31,33,35,37,39,41,-1,-1,-1,-1,-1,-1,-1,-1,-1,-1,-1,-1,43,45,47,49,51,-1,-1,-1,-1,-1,-1,-1,-1,-1,-1,-1,-1,-1],"loss_changes":[1.5873094E8,3.0330548E7,4.668664E6,2.615196E6,1.2852926E6,9.1667E5,2.908E4,5.49344E5,3.33115E5,3.450257E5,2.6058075E5,4.16685E4,2.6382E4,0E0,0E0,1.8072E4,9.306E3,1.6174E4,9.75E2,4.1458953E4,4.9207844E4,2.3368312E4,3.2955E3,0E0,0E0,0E0,0E0,0E0,0E0,0E0,0E0,0E0,0E0,0E0,0E0,1.6742812E3,2.9533906E3,7.548976E3,5.3304688E3,5.346875E1,0E0,0E0,0E0,0E0,0E0,0E0,0E0,0E0,0E0,0E0,0E0,0E0,0E0],"parents":[2147483647,0,0,1,1,2,2,3,3,4,4,5,5,6,6,7,7,8,8,9,9,10,10,11,11,12,12,15,15,16,16,17,17,18,18,19,19,20,20,21,21,22,22,35,35,36,36,37,37,38,38,39,39],"right_children":[2,4,6,8,10,12,14,16,18,20,22,24,26,-1,-1,28,30,32,34,36,38,40,42,-1,-1,-1,-1,-1,-1,-1,-1,-1,-1,-1,-1,44,46,48,50,52,-1,-1,-1,-1,-1,-1,-1,-1,-1,-1,-1,-1,-1],"split_conditions":[7.6915E2,4.16025E2,1.1462E3,2.63375E2,6.046E2,9.5395E2,1.26403E3,1.96295E2,3.4705E2,5.145E2,5.4601355E2,7.975E2,8.789483E2,1.5070042E1,1.6896254E1,1.52137E2,2.3025E2,3.04675E2,3.87225E2,4.73575E2,5.6555E2,6.403E2,7.1885E2,5.201654E0,7.699199E0,1.0416702E1,1.2301061E1,-8.983158E0,-8.077152E0,-7.1793137E0,-6.4519744E0,-5.634819E0,-4.8260612E0,-3.6672213E0,-3.0205026E0,4.4125E2,4.93025E2,4.1651364E2,5.808E2,4.8909872E2,2.5889888E0,3.4506273E0,4.4370284E0,-2.3679483E0,-1.6747537E0,-1.09646E0,-5.5436766E-1,-1.6580193E-1,3.323967E-1,7.4396133E-1,1.1226258E0,1.5573068E0,1.9274747E0],"split_indices":[3,7,6,3,3,3,3,3,3,2,4,0,4,0,0,3,3,3,3,3,3,3,3,0,0,0,0,0,0,0,0,0,0,0,0,1,3,4,3,4,0,0,0,0,0,0,0,0,0,0,0,0,0],"split_type":[0,0,0,0,0,0,0,0,0,0,0,0,0,0,0,0,0,0,0,0,0,0,0,0,0,0,0,0,0,0,0,0,0,0,0,0,0,0,0,0,0,0,0,0,0,0,0,0,0,0,0,0,0],"sum_hessian":[2.495E3,1.921E3,5.74E2,1.276E3,6.45E2,2.29E2,3.45E2,8.63E2,4.13E2,3.79E2,2.66E2,5.2E1,1.77E2,1.53E2,1.92E2,4.48E2,4.15E2,2.8E2,1.33E2,9.1E1,2.88E2,1.76E2,9E1,2.2E1,3E1,7.7E1,1E2,1.72E2,2.76E2,2.14E2,2.01E2,1.76E2,1.04E2,8.7E1,4.6E1,4.7E1,4.4E1,1.26E2,1.62E2,1.05E2,7.1E1,3E1,6E1,2.6E1,2.1E1,1.8E1,2.6E1,3.9E1,8.7E1,6.8E1,9.4E1,3.6E1,6.9E1],"tree_param":{"num_deleted":"0","num_feature":"14","num_nodes":"53","size_leaf_vector":"1"}},{"base_weights":[-2.911967E-1,-1.3255183E2,4.5327454E2,-2.1782599E2,3.833312E1,3.440685E2,5.206965E2,-2.5349986E2,-1.6224019E2,2.783206E0,8.9568146E1,2.1458844E2,3.735802E2,1.4661697E1,1.643469E1,-2.7504697E2,-6.807335E0,-1.8122894E2,-1.14245926E2,-5.7351482E1,1.8102562E1,6.813381E1,1.3338922E2,4.9949536E0,7.3716674E0,9.986009E0,1.1843678E1,-8.746019E0,-7.8976336E0,-5.8765182E0,-4.9868975E0,-3.6362948E0,-2.9353335E0,-2.2234817E0,-3.8686497E1,2.6331356E-1,2.884209E1,1.6287518E0,7.916197E1,3.3304076E0,4.284771E0,-1.2643195E0,-7.816302E-1,-2.9381952E-1,2.4092616E-1,6.010235E-1,1.0423391E0,2.0964556E0,2.6323512E0],"categories":[],"categories_nodes":[],"categories_segments":[],"categories_sizes":[],"default_left":[0,0,0,0,0,0,0,0,0,0,0,0,0,0,0,0,0,0,0,0,0,0,0,0,0,0,0,0,0,0,0,0,0,0,0,0,0,0,0,0,0,0,0,0,0,0,0,0,0],"id":11,"left_children":[1,3,5,7,9,11,13,15,17,19,21,23,25,-1,-1,27,-1,29,31,33,35,37,39,-1,-1,-1,-1,-1,-1,-1,-1,-1,-1,-1,41,43,45,-1,47,-1,-1,-1,-1,-1,-1,-1,-1,-1,-1],"loss_changes":[1.5039226E8,2.8292732E7,3.988232E6,2.526804E6,1.1781969E6,7.5667E5,3.4096E4,3.88468E5,4.43172E5,3.5386725E5,2.3981975E5,2.346825E4,2.1428E4,0E0,0E0,6.856E3,0E0,4.723E4,4.930375E3,2.1539719E4,5.8617453E4,2.3179625E4,2.303125E3,0E0,0E0,0E0,0E0,0E0,0E0,0E0,0E0,0E0,0E0,0E0,6.053164E2,9.14065E3,9.233906E3,0E0,1.674125E3,0E0,0E0,0E0,0E0,0E0,0E0,0E0,0E0,0E0,0E0],"parents":[2147483647,0,0,1,1,2,2,3,3,4,4,5,5,6,6,7,7,8,8,9,9,10,10,11,11,12,12,15,15,17,17,18,18,19,19,20,20,21,21,22,22,34,34,35,35,36,36,38,38],"right_children":[2,4,6,8,10,12,14,16,18,20,22,24,26,-1,-1,28,-1,30,32,34,36,38,40,-1,-1,-1,-1,-1,-1,-1,-1,-1,-1,-1,42,44,46,-1,48,-1,-1,-1,-1,-1,-1,-1,-1,-1,-1],"split_conditions":[7.6915E2,4.16025E2,1.15382E3,2.49413E2,6.046E2,9.5395E2,1.26828E3,1.90137E2,3.31587E2,5.077E2,5.4601355E2,7.975E2,1.04732E3,1.4661697E1,1.643469E1,1.49595E2,-6.807335E0,2.82562E2,3.87225E2,4.569E2,5.648E2,5.027428E2,7.1885E2,4.9949536E0,7.3716674E0,9.986009E0,1.1843678E1,-8.746019E0,-7.8976336E0,-5.8765182E0,-4.9868975E0,-3.6362948E0,-2.9353335E0,-2.2234817E0,4.845E2,5.41925E2,5.75575E2,1.6287518E0,6.439E2,3.3304076E0,4.284771E0,-1.2643195E0,-7.816302E-1,-2.9381952E-1,2.4092616E-1,6.010235E-1,1.0423391E0,2.0964556E0,2.6323512E0],"split_indices":[3,7,3,3,3,3,3,3,7,3,4,0,3,0,0,3,0,3,3,7,1,4,3,0,0,0,0,0,0,0,0,0,0,0,2,1,3,0,2,0,0,0,0,0,0,0,0,0,0],"split_type":[0,0,0,0,0,0,0,0,0,0,0,0,0,0,0,0,0,0,0,0,0,0,0,0,0,0,0,0,0,0,0,0,0,0,0,0,0,0,0,0,0,0,0,0,0,0,0,0,0],"sum_hessian":[2.505E3,1.94E3,5.65E2,1.294E3,6.46E2,2.18E2,3.47E2,7.86E2,5.08E2,3.82E2,2.64E2,4.2E1,1.76E2,1.68E2,1.79E2,4.29E2,3.57E2,3.62E2,1.46E2,7.7E1,3.05E2,1.79E2,8.5E1,1.9E1,2.3E1,6.6E1,1.1E2,1.69E2,2.6E2,1.77E2,1.85E2,9.8E1,4.8E1,3.9E1,3.8E1,1.15E2,1.9E2,8.2E1,9.7E1,2.9E1,5.6E1,2.8E1,1E1,5E1,6.5E1,7.8E1,1.12E2,5.1E1,4.6E1],"tree_param":{"num_deleted":"0","num_feature":"14","num_nodes":"49","size_leaf_vector":"1"}},{"base_weights":[2.4617774E0,-1.3088478E2,4.2595026E2,-2.1062166E2,3.316535E1,2.9866974E2,4.9577338E2,-2.3991008E2,-1.4726985E2,2.4712618E-1,8.2015015E1,1.8077527E2,3.4342877E2,1.303955E1,1.5552577E1,-2.6486612E2,-2.1417123E2,-1.6671672E2,-1.09129944E2,-5.139057E1,1.715254E1,6.3966324E1,1.20994606E2,4.7183886E0,6.733054E0,8.812847E0,1.0765499E1,-8.354982E0,-7.5253515E0,-6.757828E0,-6.0380864E0,-5.2737956E0,-4.5381694E0,-3.459871E0,-2.8322952E0,-6.769526E1,-3.036844E1,5.5604464E-1,2.6753006E1,1.5642259E0,2.2516959E0,3.0097828E0,3.9353855E0,-2.2479234E0,-1.5820097E0,-1.0190388E0,-5.1409024E-1,-3.3270833E-1,1.7658658E-1,5.728022E-1,9.8432726E-1],"categories":[],"categories_nodes":[],"categories_segments":[],"categories_sizes":[],"default_left":[0,0,0,0,0,0,0,0,0,0,0,0,0,0,0,0,0,0,0,0,0,0,0,0,0,0,0,0,0,0,0,0,0,0,0,0,0,0,0,0,0,0,0,0,0,0,0,0,0,0,0],"id":12,"left_children":[1,3,5,7,9,11,13,15,17,19,21,23,25,-1,-1,27,29,31,33,35,37,39,41,-1,-1,-1,-1,-1,-1,-1,-1,-1,-1,-1,-1,43,45,47,49,-1,-1,-1,-1,-1,-1,-1,-1,-1,-1,-1,-1],"loss_changes":[1.4078082E8,2.4808264E7,5.157544E6,2.332256E6,9.9857525E5,1.06716E6,3.06192E5,5.02748E5,2.82937E5,3.2562134E5,1.68143E5,2.7275875E4,1.2536E4,0E0,0E0,1.3866E4,1.6758E4,1.0836E4,1.887E3,2.9478062E4,4.4758E4,1.8774875E4,3.258875E3,0E0,0E0,0E0,0E0,0E0,0E0,0E0,0E0,0E0,0E0,0E0,0E0,1.569625E3,1.4183438E3,6.5212812E3,7.6329297E3,0E0,0E0,0E0,0E0,0E0,0E0,0E0,0E0,0E0,0E0,0E0,0E0],"parents":[2147483647,0,0,1,1,2,2,3,3,4,4,5,5,6,6,7,7,8,8,9,9,10,10,11,11,12,12,15,15,16,16,17,17,18,18,19,19,20,20,21,21,22,22,35,35,36,36,37,37,38,38],"right_children":[2,4,6,8,10,12,14,16,18,20,22,24,26,-1,-1,28,30,32,34,36,38,40,42,-1,-1,-1,-1,-1,-1,-1,-1,-1,-1,-1,-1,44,46,48,50,-1,-1,-1,-1,-1,-1,-1,-1,-1,-1,-1,-1],"split_conditions":[7.565E2,3.160708E2,9.176816E2,2.65312E2,5.997E2,9.1135E2,1.2279E3,1.9568E2,3.4705E2,5.1695E2,5.392331E2,7.85145E2,1.0225E3,1.303955E1,1.5552577E1,1.58158E2,2.3025E2,3.04675E2,3.87225E2,4.73575E2,5.5615E2,5.027428E2,7.0745E2,4.7183886E0,6.733054E0,8.812847E0,1.0765499E1,-8.354982E0,-7.5253515E0,-6.757828E0,-6.0380864E0,-5.2737956E0,-4.5381694E0,-3.459871E0,-2.8322952E0,4.4125E2,5.077E2,5.37375E2,5.75575E2,1.5642259E0,2.2516959E0,3.0097828E0,3.9353855E0,-2.2479234E0,-1.5820097E0,-1.0190388E0,-5.1409024E-1,-3.3270833E-1,1.7658658E-1,5.728022E-1,9.8432726E-1],"split_indices":[1,4,4,3,3,3,3,9,3,3,4,9,1,0,0,3,3,3,3,3,3,4,3,0,0,0,0,0,0,0,0,0,0,0,0,1,3,1,3,0,0,0,0,0,0,0,0,0,0,0,0],"split_type":[0,0,0,0,0,0,0,0,0,0,0,0,0,0,0,0,0,0,0,0,0,0,0,0,0,0,0,0,0,0,0,0,0,0,0,0,0,0,0,0,0,0,0,0,0,0,0,0,0,0,0],"sum_hessian":[2.491E3,1.895E3,5.96E2,1.275E3,6.2E2,2.13E2,3.83E2,8.7E2,4.05E2,3.71E2,2.49E2,6E1,1.53E2,1.09E2,2.74E2,4.37E2,4.33E2,2.66E2,1.39E2,9.1E1,2.8E2,1.72E2,7.7E1,4.2E1,1.8E1,4.1E1,1.12E2,2.12E2,2.25E2,2.24E2,2.09E2,1.61E2,1.05E2,9.3E1,4.6E1,5E1,4.1E1,1.03E2,1.77E2,8.6E1,8.6E1,2.9E1,4.8E1,3.1E1,1.9E1,3.1E1,1E1,3.2E1,7.1E1,8E1,9.7E1],"tree_param":{"num_deleted":"0","num_feature":"14","num_nodes":"51","size_leaf_vector":"1"}},{"base_weights":[-1.1346624E0,-1.2370541E2,4.2296646E2,-2.0431747E2,3.684299E1,3.1979227E2,4.907014E2,-2.3504198E2,-1.4752075E2,2.1006901E0,8.506728E1,2.0758138E2,3.5049094E2,1.3779173E1,1.5480694E1,-2.5696658E2,-2.0920792E2,-1.662578E2,-1.0674878E2,-4.954717E1,1.8067036E1,6.472052E1,1.2571991E2,4.743833E0,7.0315804E0,9.5477915E0,1.1203801E1,-8.204674E0,-7.363732E0,-6.5669646E0,-5.927383E0,-5.2948365E0,-4.522998E0,-3.4053009E0,-2.740852E0,-2.0940528E0,-3.2689705E1,4.899917E0,3.0075783E1,5.469278E1,2.3765688E0,3.1373878E0,4.05165E0,-1.1862645E0,-6.557867E-1,-2.522424E-1,2.8762135E-1,6.6411674E-1,1.0159554E0,1.4184041E0,1.7492219E0],"categories":[],"categories_nodes":[],"categories_segments":[],"categories_sizes":[],"default_left":[0,0,0,0,0,0,0,0,0,0,0,0,0,0,0,0,0,0,0,0,0,0,0,0,0,0,0,0,0,0,0,0,0,0,0,0,0,0,0,0,0,0,0,0,0,0,0,0,0,0,0],"id":13,"left_children":[1,3,5,7,9,11,13,15,17,19,21,23,25,-1,-1,27,29,31,33,35,37,39,41,-1,-1,-1,-1,-1,-1,-1,-1,-1,-1,-1,-1,-1,43,45,47,49,-1,-1,-1,-1,-1,-1,-1,-1,-1,-1,-1],"loss_changes":[1.3052813E8,2.5218812E7,3.777592E6,2.228656E6,1.092197E6,7.05754E5,3.1704E4,4.2202E5,3.3214E5,3.1425366E5,2.17675E5,3.0542E4,1.1438E4,0E0,0E0,1.8438E4,8.12E2,2.2868E4,4.92275E3,2.844789E4,4.5865727E4,2.24185E4,3.637375E3,0E0,0E0,0E0,0E0,0E0,0E0,0E0,0E0,0E0,0E0,0E0,0E0,0E0,2.9204922E3,8.813913E3,3.8228438E3,2.44125E2,0E0,0E0,0E0,0E0,0E0,0E0,0E0,0E0,0E0,0E0,0E0],"parents":[2147483647,0,0,1,1,2,2,3,3,4,4,5,5,6,6,7,7,8,8,9,9,10,10,11,11,12,12,15,15,16,16,17,17,18,18,19,19,20,20,21,21,22,22,36,36,37,37,38,38,39,39],"right_children":[2,4,6,8,10,12,14,16,18,20,22,24,26,-1,-1,28,30,32,34,36,38,40,42,-1,-1,-1,-1,-1,-1,-1,-1,-1,-1,-1,-1,-1,44,46,48,50,-1,-1,-1,-1,-1,-1,-1,-1,-1,-1,-1],"split_conditions":[7.6915E2,4.16025E2,1.1462E3,2.625E2,4.759895E2,9.5E2,1.26828E3,1.95812E2,3.32875E2,5.0625E2,5.4601355E2,7.975E2,8.789483E2,1.3779173E1,1.5480694E1,1.52107E2,2.274E2,2.97975E2,3.87225E2,4.585E2,5.67775E2,6.403E2,7.1885E2,4.743833E0,7.0315804E0,9.5477915E0,1.1203801E1,-8.204674E0,-7.363732E0,-6.5669646E0,-5.927383E0,-5.2948365E0,-4.522998E0,-3.4053009E0,-2.740852E0,-2.0940528E0,4.93025E2,5.355E2,5.78575E2,4.8909872E2,2.3765688E0,3.1373878E0,4.05165E0,-1.1862645E0,-6.557867E-1,-2.522424E-1,2.8762135E-1,6.6411674E-1,1.0159554E0,1.4184041E0,1.7492219E0],"split_indices":[3,7,6,1,4,0,3,6,6,2,4,0,4,0,0,6,3,3,3,0,3,3,3,0,0,0,0,0,0,0,0,0,0,0,0,0,3,0,3,4,0,0,0,0,0,0,0,0,0,0,0],"split_type":[0,0,0,0,0,0,0,0,0,0,0,0,0,0,0,0,0,0,0,0,0,0,0,0,0,0,0,0,0,0,0,0,0,0,0,0,0,0,0,0,0,0,0,0,0,0,0,0,0,0,0],"sum_hessian":[2.509E3,1.947E3,5.62E2,1.296E3,6.51E2,2.25E2,3.37E2,8.39E2,4.57E2,3.79E2,2.72E2,5E1,1.75E2,1.59E2,1.78E2,4.49E2,3.9E2,3.11E2,1.46E2,8.9E1,2.9E2,1.83E2,8.9E1,2E1,3E1,7.9E1,9.6E1,1.75E2,2.74E2,2.03E2,1.87E2,1.81E2,1.3E2,9.7E1,4.9E1,3.9E1,5E1,1.39E2,1.51E2,1.11E2,7.2E1,3.1E1,5.8E1,2.9E1,2.1E1,3.6E1,1.03E2,5.1E1,1E2,4.1E1,7E1],"tree_param":{"num_deleted":"0","num_feature":"14","num_nodes":"51","size_leaf_vector":"1"}},{"base_weights":[1.7505888E0,-1.2471458E2,3.921132E2,-1.9951447E2,2.7976849E1,2.5347668E2,4.5946063E2,-2.3514255E2,-1.5460915E2,-1.1191844E1,6.059267E1,4.594375E0,3.078665E2,1.1630564E1,1.4459149E1,-7.6920342E0,-2.1559029E2,-1.7270471E2,-1.1350183E2,-5.8374104E1,5.7931385E0,4.5053642E1,9.575924E1,7.884947E0,9.74885E0,-6.7171345E0,-6.0291824E0,-5.5162764E0,-4.6826324E0,-3.9393044E0,-2.9933531E0,-2.10901E0,-3.9178802E1,-1.0398163E1,1.3675455E1,3.2734608E1,5.699408E1,2.4637704E0,3.4311833E0,-1.2645751E0,-7.608107E-1,-4.9063396E-1,-7.707972E-2,2.0666237E-1,5.58528E-1,8.573939E-1,1.1368995E0,1.5283161E0,1.9142953E0],"categories":[],"categories_nodes":[],"categories_segments":[],"categories_sizes":[],"default_left":[0,0,0,0,0,0,0,0,0,0,0,0,0,0,0,0,0,0,0,0,0,0,0,0,0,0,0,0,0,0,0,0,0,0,0,0,0,0,0,0,0,0,0,0,0,0,0,0,0],"id":14,"left_children":[1,3,5,7,9,11,13,15,17,19,21,-1,23,-1,-1,-1,25,27,29,31,33,35,37,-1,-1,-1,-1,-1,-1,-1,-1,-1,39,41,43,45,47,-1,-1,-1,-1,-1,-1,-1,-1,-1,-1,-1,-1],"loss_changes":[1.232696E8,2.1546156E7,5.588336E6,1.989108E6,7.940175E5,1.05516E6,4.756E5,2.37344E5,3.9919E5,2.2713152E5,1.8093375E5,0E0,1.4673E4,0E0,0E0,0E0,3.32E2,4.351E4,2.96665E4,1.4415266E4,2.6815818E4,3.299572E4,1.6745188E4,0E0,0E0,0E0,0E0,0E0,0E0,0E0,0E0,0E0,2.0484375E2,3.1755146E3,4.6010156E3,1.4691484E3,1.6564688E3,0E0,0E0,0E0,0E0,0E0,0E0,0E0,0E0,0E0,0E0,0E0,0E0],"parents":[2147483647,0,0,1,1,2,2,3,3,4,4,5,5,6,6,7,7,8,8,9,9,10,10,12,12,16,16,17,17,18,18,19,19,20,20,21,21,22,22,32,32,33,33,34,34,35,35,36,36],"right_children":[2,4,6,8,10,12,14,16,18,20,22,-1,24,-1,-1,-1,26,28,30,32,34,36,38,-1,-1,-1,-1,-1,-1,-1,-1,-1,40,42,44,46,48,-1,-1,-1,-1,-1,-1,-1,-1,-1,-1,-1,-1],"split_conditions":[7.35375E2,4.1085E2,9.011511E2,2.385102E2,5.75575E2,8.88725E2,1.20253E3,1.72901E2,3.1675E2,3.8273364E2,6.439E2,4.594375E0,8.2636035E2,1.1630564E1,1.4459149E1,-7.6920342E0,2.1322E2,2.77425E2,3.62075E2,4.585E2,5.4615E2,4.8099683E2,6.892E2,7.884947E0,9.74885E0,-6.7171345E0,-6.0291824E0,-5.5162764E0,-4.6826324E0,-3.9393044E0,-2.9933531E0,-2.10901E0,4.908E2,5.1875E2,5.648E2,5.85E2,5.027428E2,2.4637704E0,3.4311833E0,-1.2645751E0,-7.608107E-1,-4.9063396E-1,-7.707972E-2,2.0666237E-1,5.58528E-1,8.573939E-1,1.1368995E0,1.5283161E0,1.9142953E0],"split_indices":[3,3,4,9,3,3,3,9,3,4,2,0,4,0,0,0,3,3,3,0,1,4,3,0,0,0,0,0,0,0,0,0,8,2,1,2,4,0,0,0,0,0,0,0,0,0,0,0,0],"split_type":[0,0,0,0,0,0,0,0,0,0,0,0,0,0,0,0,0,0,0,0,0,0,0,0,0,0,0,0,0,0,0,0,0,0,0,0,0,0,0,0,0,0,0,0,0,0,0,0,0],"sum_hessian":[2.495E3,1.885E3,6.1E2,1.265E3,6.2E2,2.01E2,4.09E2,7.03E2,5.62E2,2.82E2,3.38E2,7.2E1,1.29E2,1.02E2,3.07E2,3.31E2,3.72E2,3.88E2,1.74E2,7.4E1,2.08E2,2.36E2,1.02E2,4E1,8.9E1,2.28E2,1.44E2,2.26E2,1.62E2,7.2E1,1.02E2,4.4E1,3E1,6.8E1,1.4E2,1.18E2,1.18E2,6.2E1,4E1,2.3E1,7E0,3.8E1,3E1,6E1,8E1,6.9E1,4.9E1,6.7E1,5.1E1],"tree_param":{"num_deleted":"0","num_feature":"14","num_nodes":"49","size_leaf_vector":"1"}},{"base_weights":[-7.3597145E-1,-1.1753224E2,3.9474765E2,-1.9339606E2,3.3097427E1,2.877165E2,4.578698E2,-2.2091919E2,-1.3790213E2,1.9677287E0,7.8380226E1,1.7264117E2,3.195675E2,1.2299285E1,1.4279489E1,-2.4220024E2,-1.9654083E2,-1.546884E2,-9.857966E1,-4.5663086E1,1.671543E1,5.9295635E1,1.15042366E2,4.3367753E0,6.183964E0,8.203827E0,1.0103602E1,-7.761585E0,-6.9538584E0,-6.239289E0,-5.6008205E0,-4.950034E0,-4.234164E0,-3.1486285E0,-2.5807855E0,-6.19319E1,-2.729495E1,1.163171E0,2.496656E1,1.5447646E0,2.1584833E0,2.8004372E0,3.7000275E0,-2.047381E0,-1.4903942E0,-9.1192853E-1,-4.868843E-1,-2.4319762E-1,1.7948128E-1,5.706123E-1,9.573848E-1],"categories":[],"categories_nodes":[],"categories_segments":[],"categories_sizes":[],"default_left":[0,0,0,0,0,0,0,0,0,0,0,0,0,0,0,0,0,0,0,0,0,0,0,0,0,0,0,0,0,0,0,0,0,0,0,0,0,0,0,0,0,0,0,0,0,0,0,0,0,0,0],"id":15,"left_children":[1,3,5,7,9,11,13,15,17,19,21,23,25,-1,-1,27,29,31,33,35,37,39,41,-1,-1,-1,-1,-1,-1,-1,-1,-1,-1,-1,-1,43,45,47,49,-1,-1,-1,-1,-1,-1,-1,-1,-1,-1,-1,-1],"loss_changes":[1.1649393E8,2.2255438E7,3.752992E6,1.947472E6,9.203407E5,7.36526E5,1.1716E5,4.0064E5,2.699045E5,2.7331194E5,1.7929388E5,1.6285875E4,4.128E4,0E0,0E0,1.8582E4,7.115E3,1.87715E4,1.534375E3,2.5801719E4,3.8083117E4,1.377275E4,4.676875E3,0E0,0E0,0E0,0E0,0E0,0E0,0E0,0E0,0E0,0E0,0E0,0E0,3.2290625E2,1.051625E3,4.6947993E3,7.4058906E3,0E0,0E0,0E0,0E0,0E0,0E0,0E0,0E0,0E0,0E0,0E0,0E0],"parents":[2147483647,0,0,1,1,2,2,3,3,4,4,5,5,6,6,7,7,8,8,9,9,10,10,11,11,12,12,15,15,16,16,17,17,18,18,19,19,20,20,21,21,22,22,35,35,36,36,37,37,38,38],"right_children":[2,4,6,8,10,12,14,16,18,20,22,24,26,-1,-1,28,30,32,34,36,38,40,42,-1,-1,-1,-1,-1,-1,-1,-1,-1,-1,-1,-1,44,46,48,50,-1,-1,-1,-1,-1,-1,-1,-1,-1,-1,-1,-1],"split_conditions":[6.187194E2,4.16025E2,1.111042E3,2.64475E2,4.759895E2,9.01E2,1.2279E3,1.95812E2,2.5837122E2,5.0625E2,5.392331E2,7.975E2,1.0355E3,1.2299285E1,1.4279489E1,1.49533E2,2.175E2,2.9795E2,3.86725E2,4.7416E2,5.648E2,5.149737E2,5.745275E2,4.3367753E0,6.183964E0,8.203827E0,1.0103602E1,-7.761585E0,-6.9538584E0,-6.239289E0,-5.6008205E0,-4.950034E0,-4.234164E0,-3.1486285E0,-2.5807855E0,4.3225E2,4.99225E2,5.275E2,4.4870685E2,1.5447646E0,2.1584833E0,2.8004372E0,3.7000275E0,-2.047381E0,-1.4903942E0,-9.1192853E-1,-4.868843E-1,-2.4319762E-1,1.7948128E-1,5.706123E-1,9.573848E-1],"split_indices":[4,7,9,1,4,2,2,6,4,2,4,0,1,0,0,6,2,6,6,9,1,4,4,0,0,0,0,0,0,0,0,0,0,0,0,2,2,2,4,0,0,0,0,0,0,0,0,0,0,0,0],"split_type":[0,0,0,0,0,0,0,0,0,0,0,0,0,0,0,0,0,0,0,0,0,0,0,0,0,0,0,0,0,0,0,0,0,0,0,0,0,0,0,0,0,0,0,0,0,0,0,0,0,0,0],"sum_hessian":[2.52E3,1.946E3,5.74E2,1.294E3,6.52E2,2.15E2,3.59E2,8.63E2,4.31E2,3.87E2,2.65E2,4.8E1,1.67E2,1.05E2,2.54E2,4.56E2,4.07E2,3E2,1.31E2,9.1E1,2.96E2,1.76E2,8.9E1,2.9E1,1.9E1,5E1,1.17E2,1.67E2,2.89E2,1.79E2,2.28E2,1.64E2,1.36E2,8.2E1,4.9E1,4.7E1,4.4E1,1.03E2,1.93E2,1.12E2,6.4E1,2.8E1,6.1E1,2.8E1,1.9E1,3.3E1,1.1E1,3.5E1,6.8E1,1.06E2,8.7E1],"tree_param":{"num_deleted":"0","num_feature":"14","num_nodes":"51","size_leaf_vector":"1"}},{"base_weights":[2.2783594E0,-1.1276752E2,3.8622995E2,-1.8641754E2,3.2872673E1,2.9196945E2,4.4740433E2,-2.1693146E2,-1.3864459E2,1.397555E0,7.851827E1,1.8699721E2,3.196602E2,1.2675848E1,1.4265401E1,-7.1545677E0,-1.9701562E2,-1.5551755E2,-1.0005405E2,-4.271116E1,1.6822874E1,5.913325E1,1.1490816E2,4.402234E0,6.3326435E0,8.666163E0,1.02328205E1,-6.2212405E0,-5.5610147E0,-5.0451064E0,-4.2874494E0,-3.4841828E0,-2.7432435E0,-5.9358963E1,-2.3786222E1,4.234124E0,2.7191427E1,1.4660789E0,2.130231E0,2.8429744E0,3.7165565E0,-1.9937763E0,-1.4255081E0,-8.7110126E-1,-4.2732215E-1,-2.1674995E-1,2.379802E-1,6.854728E-1,1.0052495E0],"categories":[],"categories_nodes":[],"categories_segments":[],"categories_sizes":[],"default_left":[0,0,0,0,0,0,0,0,0,0,0,0,0,0,0,0,0,0,0,0,0,0,0,0,0,0,0,0,0,0,0,0,0,0,0,0,0,0,0,0,0,0,0,0,0,0,0,0,0],"id":16,"left_children":[1,3,5,7,9,11,13,15,17,19,21,23,25,-1,-1,-1,27,29,31,33,35,37,39,-1,-1,-1,-1,-1,-1,-1,-1,-1,-1,41,43,45,47,-1,-1,-1,-1,-1,-1,-1,-1,-1,-1,-1,-1],"loss_changes":[1.0959023E8,2.0482832E7,3.167712E6,1.81834E6,9.222521E5,6.02966E5,4.0312E4,2.84412E5,3.08054E5,2.5994747E5,1.7802475E5,1.7515E4,1.9592E4,0E0,0E0,0E0,1.0671E4,3.08185E4,1.0714625E4,2.9778875E4,3.682404E4,1.7614938E4,4.533625E3,0E0,0E0,0E0,0E0,0E0,0E0,0E0,0E0,0E0,0E0,1.2142969E3,1.9912441E3,5.5246074E3,3.4860312E3,0E0,0E0,0E0,0E0,0E0,0E0,0E0,0E0,0E0,0E0,0E0,0E0],"parents":[2147483647,0,0,1,1,2,2,3,3,4,4,5,5,6,6,7,7,8,8,9,9,10,10,11,11,12,12,16,16,17,17,18,18,19,19,20,20,21,21,22,22,33,33,34,34,35,35,36,36],"right_children":[2,4,6,8,10,12,14,16,18,20,22,24,26,-1,-1,-1,28,30,32,34,36,38,40,-1,-1,-1,-1,-1,-1,-1,-1,-1,-1,42,44,46,48,-1,-1,-1,-1,-1,-1,-1,-1,-1,-1,-1,-1],"split_conditions":[7.6915E2,4.16025E2,1.15382E3,2.498902E2,6.046E2,9.5395E2,1.27372E3,1.802906E2,3.26575E2,5.2165E2,5.4601355E2,7.975E2,8.789483E2,1.2675848E1,1.4265401E1,-7.1545677E0,2.1665E2,2.82562E2,3.69E2,4.73575E2,5.6555E2,6.42E2,7.1885E2,4.402234E0,6.3326435E0,8.666163E0,1.02328205E1,-6.2212405E0,-5.5610147E0,-5.0451064E0,-4.2874494E0,-3.4841828E0,-2.7432435E0,4.4125E2,5.077E2,5.266225E2,5.945E2,1.4660789E0,2.130231E0,2.8429744E0,3.7165565E0,-1.9937763E0,-1.4255081E0,-8.7110126E-1,-4.2732215E-1,-2.1674995E-1,2.379802E-1,6.854728E-1,1.0052495E0],"split_indices":[3,7,3,9,3,3,3,9,3,3,4,0,4,0,0,0,3,3,3,3,3,1,3,0,0,0,0,0,0,0,0,0,0,1,3,11,1,0,0,0,0,0,0,0,0,0,0,0,0],"split_type":[0,0,0,0,0,0,0,0,0,0,0,0,0,0,0,0,0,0,0,0,0,0,0,0,0,0,0,0,0,0,0,0,0,0,0,0,0,0,0,0,0,0,0,0,0,0,0,0,0],"sum_hessian":[2.479E3,1.908E3,5.71E2,1.267E3,6.41E2,2.27E2,3.44E2,7.71E2,4.96E2,3.8E2,2.61E2,4.9E1,1.78E2,1.91E2,1.53E2,3.65E2,4.06E2,3.43E2,1.53E2,9.8E1,2.82E2,1.72E2,8.9E1,2.1E1,2.8E1,7.9E1,9.9E1,2.06E2,2E2,1.65E2,1.78E2,4.9E1,1.04E2,5.1E1,4.7E1,1.28E2,1.54E2,9.5E1,7.7E1,3.1E1,5.8E1,2.9E1,2.2E1,2.9E1,1.8E1,3.1E1,9.7E1,9.4E1,6E1],"tree_param":{"num_deleted":"0","num_feature":"14","num_nodes":"49","size_leaf_vector":"1"}},{"base_weights":[8.259851E-1,-1.109832E2,3.706699E2,-1.8127634E2,3.0892942E1,2.7420792E2,4.3055756E2,-2.1409825E2,-1.3929686E2,4.5253128E-1,7.239053E1,1.7608235E2,3.068409E2,1.1707138E1,1.3416099E1,-7.065701E0,-1.9727594E2,-1.5527805E2,-9.8977295E1,-4.435912E1,1.5279469E1,5.4990387E1,1.07159134E2,4.115272E0,6.234679E0,8.014291E0,9.635497E0,-6.1884775E0,-5.570193E0,-5.0386305E0,-4.252858E0,-3.420751E0,-2.6628027E0,-5.8150013E1,-2.5321983E1,4.170858E0,2.565464E1,1.3465937E0,1.9445107E0,2.40847E0,3.4018943E0,-1.8728666E0,-1.2153347E0,-9.3912315E-1,-5.525675E-1,-2.0296161E-1,2.5236484E-1,5.913266E-1,8.788738E-1],"categories":[],"categories_nodes":[],"categories_segments":[],"categories_sizes":[],"default_left":[0,0,0,0,0,0,0,0,0,0,0,0,0,0,0,0,0,0,0,0,0,0,0,0,0,0,0,0,0,0,0,0,0,0,0,0,0,0,0,0,0,0,0,0,0,0,0,0,0],"id":17,"left_children":[1,3,5,7,9,11,13,15,17,19,21,23,25,-1,-1,-1,27,29,31,33,35,37,39,-1,-1,-1,-1,-1,-1,-1,-1,-1,-1,41,43,45,47,-1,-1,-1,-1,-1,-1,-1,-1,-1,-1,-1,-1],"loss_changes":[1.0242855E8,1.8974088E7,3.203648E6,1.7228E6,7.970488E5,6.60047E5,6.24E4,2.10156E5,3.46114E5,2.4319092E5,1.5563675E5,4.31165E4,8.711E3,0E0,0E0,0E0,4.022E3,4.4724E4,1.4786E4,2.2418562E4,3.1587781E4,1.4962375E4,5.6485625E3,0E0,0E0,0E0,0E0,0E0,0E0,0E0,0E0,0E0,0E0,1.395625E3,1.0752129E3,6.2723594E3,2.4957344E3,0E0,0E0,0E0,0E0,0E0,0E0,0E0,0E0,0E0,0E0,0E0,0E0],"parents":[2147483647,0,0,1,1,2,2,3,3,4,4,5,5,6,6,7,7,8,8,9,9,10,10,11,11,12,12,16,16,17,17,18,18,19,19,20,20,21,21,22,22,33,33,34,34,35,35,36,36],"right_children":[2,4,6,8,10,12,14,16,18,20,22,24,26,-1,-1,-1,28,30,32,34,36,38,40,-1,-1,-1,-1,-1,-1,-1,-1,-1,-1,42,44,46,48,-1,-1,-1,-1,-1,-1,-1,-1,-1,-1,-1,-1],"split_conditions":[7.55875E2,4.16025E2,1.12743E3,2.4087E2,4.7068677E2,9.5E2,1.24438E3,1.675E2,3.23575E2,5.0625E2,5.392331E2,7.975E2,8.580644E2,1.1707138E1,1.3416099E1,-7.065701E0,2.1035E2,2.74225E2,2.7632318E2,4.73575E2,5.6555E2,5.027428E2,6.892E2,4.115272E0,6.234679E0,8.014291E0,9.635497E0,-6.1884775E0,-5.570193E0,-5.0386305E0,-4.252858E0,-3.420751E0,-2.6628027E0,4.585E2,4.93025E2,4.1208603E2,5.78575E2,1.3465937E0,1.9445107E0,2.40847E0,3.4018943E0,-1.8728666E0,-1.2153347E0,-9.3912315E-1,-5.525675E-1,-2.0296161E-1,2.5236484E-1,5.913266E-1,8.788738E-1],"split_indices":[3,7,0,3,4,0,3,2,3,2,4,0,4,0,0,0,3,3,4,3,3,4,3,0,0,0,0,0,0,0,0,0,0,0,3,4,3,0,0,0,0,0,0,0,0,0,0,0,0],"split_type":[0,0,0,0,0,0,0,0,0,0,0,0,0,0,0,0,0,0,0,0,0,0,0,0,0,0,0,0,0,0,0,0,0,0,0,0,0,0,0,0,0,0,0,0,0,0,0,0,0],"sum_hessian":[2.475E3,1.901E3,5.74E2,1.271E3,6.3E2,2.22E2,3.52E2,7.11E2,5.6E2,3.64E2,2.66E2,5.7E1,1.65E2,1.1E2,2.42E2,3.07E2,4.04E2,3.99E2,1.61E2,9E1,2.74E2,1.79E2,8.7E1,2.8E1,2.9E1,4.9E1,1.16E2,2.18E2,1.86E2,2E2,1.99E2,6.1E1,1E2,5.1E1,3.9E1,1.33E2,1.41E2,9.1E1,8.8E1,1.9E1,6.8E1,3.9E1,1.2E1,1.9E1,2E1,3.7E1,9.6E1,5.6E1,8.5E1],"tree_param":{"num_deleted":"0","num_feature":"14","num_nodes":"49","size_leaf_vector":"1"}},{"base_weights":[1.6594752E0,-1.0634308E2,3.644104E2,-1.7568584E2,3.1014542E1,2.780252E2,4.242383E2,-2.0457445E2,-1.3078133E2,2.6556811E0,7.6197365E1,1.8046489E2,3.035311E2,1.2158753E1,1.375634E1,-6.7470174E0,-1.8642816E2,-1.4586772E2,-9.1738075E1,-4.6866516E1,1.5143663E1,5.8028385E1,3.3880656E0,4.1426435E0,6.079054E0,8.273191E0,9.770992E0,-5.861787E0,-5.256948E0,-4.6923604E0,-3.95717E0,-3.0382197E0,-2.46376E0,-1.7957908E0,-3.1339E1,-2.9991465E-2,2.4202711E1,1.4314101E0,2.1047473E0,-1.0737911E0,-6.248614E-1,-3.0671585E-1,1.4280781E-1,5.571958E-1,9.323508E-1],"categories":[],"categories_nodes":[],"categories_segments":[],"categories_sizes":[],"default_left":[0,0,0,0,0,0,0,0,0,0,0,0,0,0,0,0,0,0,0,0,0,0,0,0,0,0,0,0,0,0,0,0,0,0,0,0,0,0,0,0,0,0,0,0,0],"id":18,"left_children":[1,3,5,7,9,11,13,15,17,19,21,23,25,-1,-1,-1,27,29,31,33,35,37,-1,-1,-1,-1,-1,-1,-1,-1,-1,-1,-1,-1,39,41,43,-1,-1,-1,-1,-1,-1,-1,-1],"loss_changes":[9.853232E7,1.8464424E7,2.86412E6,1.64408E6,8.3394575E5,5.39944E5,3.4504E4,2.4651E5,2.85252E5,2.4870111E5,1.6098762E5,2.0872625E4,2.5868E4,0E0,0E0,0E0,7.817E3,3.2956E4,4.88275E3,1.4465953E4,4.4125023E4,1.7922188E4,0E0,0E0,0E0,0E0,0E0,0E0,0E0,0E0,0E0,0E0,0E0,0E0,1.0801914E3,5.957244E3,7.2028047E3,0E0,0E0,0E0,0E0,0E0,0E0,0E0,0E0],"parents":[2147483647,0,0,1,1,2,2,3,3,4,4,5,5,6,6,7,7,8,8,9,9,10,10,11,11,12,12,16,16,17,17,18,18,19,19,20,20,21,21,34,34,35,35,36,36],"right_children":[2,4,6,8,10,12,14,16,18,20,22,24,26,-1,-1,-1,28,30,32,34,36,38,-1,-1,-1,-1,-1,-1,-1,-1,-1,-1,-1,-1,40,42,44,-1,-1,-1,-1,-1,-1,-1,-1],"split_conditions":[7.6915E2,3.160708E2,1.17538E3,2.49413E2,6.08375E2,9.5E2,1.2914E3,1.8E2,3.32875E2,5.077E2,6.892E2,7.9495E2,8.8886884E2,1.2158753E1,1.375634E1,-6.7470174E0,2.20875E2,2.89925E2,3.7925E2,4.51E2,5.5615E2,6.403E2,3.3880656E0,4.1426435E0,6.079054E0,8.273191E0,9.770992E0,-5.861787E0,-5.256948E0,-4.6923604E0,-3.95717E0,-3.0382197E0,-2.46376E0,-1.7957908E0,4.908E2,5.2265E2,5.83275E2,1.4314101E0,2.1047473E0,-1.0737911E0,-6.248614E-1,-3.0671585E-1,1.4280781E-1,5.571958E-1,9.323508E-1],"split_indices":[3,4,3,3,3,0,3,3,6,3,3,6,4,0,0,0,1,3,3,2,3,3,0,0,0,0,0,0,0,0,0,0,0,0,8,2,3,0,0,0,0,0,0,0,0],"split_type":[0,0,0,0,0,0,0,0,0,0,0,0,0,0,0,0,0,0,0,0,0,0,0,0,0,0,0,0,0,0,0,0,0,0,0,0,0,0,0,0,0,0,0,0,0],"sum_hessian":[2.513E3,1.937E3,5.76E2,1.287E3,6.5E2,2.38E2,3.38E2,7.81E2,5.06E2,4E2,2.5E2,5.1E1,1.87E2,2.26E2,1.12E2,3.63E2,4.18E2,3.63E2,1.43E2,8E1,3.2E2,1.69E2,8.1E1,2E1,3.1E1,8.9E1,9.8E1,2.23E2,1.95E2,2.01E2,1.62E2,6.7E1,7.6E1,4.2E1,3.8E1,1.2E2,2E2,9.4E1,7.5E1,2.5E1,1.3E1,3.8E1,8.2E1,1.12E2,8.8E1],"tree_param":{"num_deleted":"0","num_feature":"14","num_nodes":"45","size_leaf_vector":"1"}},{"base_weights":[-1.119239E0,-1.0836695E2,3.3847034E2,-1.718788E2,2.1704739E1,2.2812315E2,3.9895462E2,-2.0239912E2,-1.3389626E2,-3.5194805E1,4.0299866E1,3.9595947E0,2.7038867E2,1.0443243E1,1.2576266E1,-6.644418E0,-5.613138E0,-1.4905016E2,-9.793137E1,-5.9904274E1,-1.472247E1,2.4753412E1,7.39741E1,6.693411E0,8.511332E0,-4.773778E0,-4.031062E0,-3.3699589E0,-2.6200073E0,-1.9806265E0,-1.2833884E0,-2.6377905E1,-8.215587E0,1.5530175E1,3.7345943E1,1.8191552E0,2.7690022E0,-9.697747E-1,-6.3699037E-1,-3.3652008E-1,2.2110473E-2,2.6151317E-1,6.2303513E-1,8.827929E-1,1.2541171E0],"categories":[],"categories_nodes":[],"categories_segments":[],"categories_sizes":[],"default_left":[0,0,0,0,0,0,0,0,0,0,0,0,0,0,0,0,0,0,0,0,0,0,0,0,0,0,0,0,0,0,0,0,0,0,0,0,0,0,0,0,0,0,0,0,0],"id":19,"left_children":[1,3,5,7,9,11,13,15,17,19,21,-1,23,-1,-1,-1,-1,25,27,29,31,33,35,-1,-1,-1,-1,-1,-1,-1,-1,37,39,41,43,-1,-1,-1,-1,-1,-1,-1,-1,-1,-1],"loss_changes":[9.028595E7,1.556763E7,3.880176E6,1.440496E6,6.563539E5,8.29788E5,2.48508E5,1.6285E5,2.94423E5,7.651472E4,2.4265038E5,0E0,2.9284E4,0E0,0E0,0E0,0E0,3.7345E4,1.628675E4,4.4030312E3,6.2297363E3,3.6702203E4,3.0328E4,0E0,0E0,0E0,0E0,0E0,0E0,0E0,0E0,2.3166797E2,1.5131816E3,6.4919805E3,3.5360156E3,0E0,0E0,0E0,0E0,0E0,0E0,0E0,0E0,0E0,0E0],"parents":[2147483647,0,0,1,1,2,2,3,3,4,4,5,5,6,6,7,7,8,8,9,9,10,10,12,12,17,17,18,18,19,19,20,20,21,21,22,22,31,31,32,32,33,33,34,34],"right_children":[2,4,6,8,10,12,14,16,18,20,22,-1,24,-1,-1,-1,-1,26,28,30,32,34,36,-1,-1,-1,-1,-1,-1,-1,-1,38,40,42,44,-1,-1,-1,-1,-1,-1,-1,-1,-1,-1],"split_conditions":[7.35375E2,3.9505E2,9.137004E2,2.3755E2,4.1651364E2,8.725E2,1.2279E3,1.675E2,3.1675E2,4.73575E2,5.027428E2,3.9595947E0,8.2636035E2,1.0443243E1,1.2576266E1,-6.644418E0,-5.613138E0,2.74225E2,3.62075E2,4.3225E2,5.077E2,5.87875E2,5.392331E2,6.693411E0,8.511332E0,-4.773778E0,-4.031062E0,-3.3699589E0,-2.6200073E0,-1.9806265E0,-1.2833884E0,4.79825E2,5.275E2,5.6555E2,4.7068677E2,1.8191552E0,2.7690022E0,-9.697747E-1,-6.3699037E-1,-3.3652008E-1,2.2110473E-2,2.6151317E-1,6.2303513E-1,8.827929E-1,1.2541171E0],"split_indices":[3,2,4,3,4,2,3,2,3,3,4,0,4,0,0,0,0,3,3,2,3,3,4,0,0,0,0,0,0,0,0,7,2,3,4,0,0,0,0,0,0,0,0,0,0],"split_type":[0,0,0,0,0,0,0,0,0,0,0,0,0,0,0,0,0,0,0,0,0,0,0,0,0,0,0,0,0,0,0,0,0,0,0,0,0,0,0,0,0,0,0,0,0],"sum_hessian":[2.477E3,1.883E3,5.94E2,1.265E3,6.18E2,2.12E2,3.82E2,6.99E2,5.66E2,1.52E2,4.66E2,6.6E1,1.46E2,1.14E2,2.68E2,3.05E2,3.94E2,3.96E2,1.7E2,6.8E1,8.4E1,3.2E2,1.46E2,3.6E1,1.1E2,2.29E2,1.67E2,6.8E1,1.02E2,4.8E1,2E1,2.9E1,5.5E1,1.86E2,1.34E2,8.7E1,5.9E1,1.1E1,1.8E1,4.1E1,1.4E1,8.2E1,1.04E2,5.1E1,8.3E1],"tree_param":{"num_deleted":"0","num_feature":"14","num_nodes":"45","size_leaf_vector":"1"}},{"base_weights":[-3.2444484E0,-1.0566193E2,3.2723505E2,-1.6679224E2,2.2111155E1,2.1194623E2,3.8175558E2,-1.9806656E2,-1.3192963E2,-1.7260172E1,4.6148006E1,3.8248897E0,2.5517001E2,9.519325E0,1.2056926E1,-6.4530635E0,-5.4671516E0,-1.479413E2,-1.0072286E2,-5.2095726E1,3.784825E-1,3.420078E1,8.0196075E1,6.537523E0,8.117255E0,-4.678525E0,-4.0193443E0,-3.4679098E0,-2.5723026E0,-1.9070648E0,-3.5856144E1,-1.2475741E1,6.1535144E0,2.3834492E1,4.628429E1,2.0780864E0,2.837429E0,-1.274804E0,-8.409096E-1,-5.381145E-1,-2.321722E-1,2.7775267E-2,2.7875632E-1,5.454988E-1,8.125308E-1,1.2057488E0,1.5305834E0],"categories":[],"categories_nodes":[],"categories_segments":[],"categories_sizes":[],"default_left":[0,0,0,0,0,0,0,0,0,0,0,0,0,0,0,0,0,0,0,0,0,0,0,0,0,0,0,0,0,0,0,0,0,0,0,0,0,0,0,0,0,0,0,0,0,0,0],"id":20,"left_children":[1,3,5,7,9,11,13,15,17,19,21,-1,23,-1,-1,-1,-1,25,27,29,31,33,35,-1,-1,-1,-1,-1,-1,-1,37,39,41,43,45,-1,-1,-1,-1,-1,-1,-1,-1,-1,-1,-1,-1],"loss_changes":[8.455022E7,1.4898902E7,3.633888E6,1.38036E6,5.8564875E5,6.68313E5,3.91692E5,1.43618E5,2.91398E5,1.4441598E5,1.5346081E5,0E0,1.33465E4,0E0,0E0,0E0,0E0,2.4178E4,3.710075E4,1.2439828E4,1.17314375E4,3.47215E4,9.0089375E3,0E0,0E0,0E0,0E0,0E0,0E0,0E0,6.268828E2,1.1287578E3,1.779688E3,2.3725703E3,1.7287812E3,0E0,0E0,0E0,0E0,0E0,0E0,0E0,0E0,0E0,0E0,0E0,0E0],"parents":[2147483647,0,0,1,1,2,2,3,3,4,4,5,5,6,6,7,7,8,8,9,9,10,10,12,12,17,17,18,18,19,19,20,20,21,21,22,22,30,30,31,31,32,32,33,33,34,34],"right_children":[2,4,6,8,10,12,14,16,18,20,22,-1,24,-1,-1,-1,-1,26,28,30,32,34,36,-1,-1,-1,-1,-1,-1,-1,38,40,42,44,46,-1,-1,-1,-1,-1,-1,-1,-1,-1,-1,-1,-1],"split_conditions":[7.35375E2,3.9505E2,9.011511E2,2.32545E2,5.6555E2,8.88725E2,1.19528E3,1.70432E2,3.0885E2,4.93025E2,6.551E2,3.8248897E0,8.2636035E2,9.519325E0,1.2056926E1,-6.4530635E0,-5.4671516E0,2.71837E2,3.5103E2,4.3225E2,5.2265E2,6.046E2,6.892E2,6.537523E0,8.117255E0,-4.678525E0,-4.0193443E0,-3.4679098E0,-2.5723026E0,-1.9070648E0,4.73575E2,5.0625E2,5.45375E2,5.78575E2,6.2145E2,2.0780864E0,2.837429E0,-1.274804E0,-8.409096E-1,-5.381145E-1,-2.321722E-1,2.7775267E-2,2.7875632E-1,5.454988E-1,8.125308E-1,1.2057488E0,1.5305834E0],"split_indices":[3,2,4,3,3,3,3,3,3,3,1,0,4,0,0,0,0,3,10,2,2,3,3,0,0,0,0,0,0,0,3,2,3,3,3,0,0,0,0,0,0,0,0,0,0,0,0],"split_type":[0,0,0,0,0,0,0,0,0,0,0,0,0,0,0,0,0,0,0,0,0,0,0,0,0,0,0,0,0,0,0,0,0,0,0,0,0,0,0,0,0,0,0,0,0,0,0],"sum_hessian":[2.496E3,1.906E3,5.9E2,1.289E3,6.17E2,1.91E2,3.99E2,6.77E2,6.12E2,2.34E2,3.83E2,6.6E1,1.25E2,9.9E1,3E2,3.2E2,3.57E2,4.02E2,2.1E2,7.8E1,1.56E2,2.85E2,9.8E1,4.1E1,8.4E1,2.49E2,1.53E2,1.02E2,1.08E2,4.4E1,3.4E1,4.8E1,1.08E2,1.55E2,1.3E2,5.9E1,3.9E1,1.6E1,1.8E1,2.1E1,2.7E1,4.1E1,6.7E1,5.9E1,9.6E1,6.1E1,6.9E1],"tree_param":{"num_deleted":"0","num_feature":"14","num_nodes":"47","size_leaf_vector":"1"}},{"base_weights":[-3.1662974E-1,-9.991241E1,3.2438647E2,-1.6143039E2,2.395643E1,2.2237782E2,3.7521338E2,-1.9001471E2,-1.251002E2,-8.391408E0,5.351239E1,3.9313188E0,2.5317363E2,9.499101E0,1.1742827E1,-6.2568417E0,-1.7505533E2,-1.3907883E2,-9.020027E1,-4.499756E1,6.6608443E0,3.9728115E1,8.712849E1,6.4789176E0,8.103824E0,-5.4760985E0,-4.903042E0,-4.456285E0,-3.752876E0,-3.086661E0,-2.393036E0,-5.7234104E1,-2.8576939E1,-6.102526E0,1.2780154E1,2.8940012E1,4.8467922E1,2.1764576E0,2.9889808E0,-1.8110772E0,-1.2189151E0,-9.2971945E-1,-4.514479E-1,-3.656273E-1,-2.3914889E-2,2.1831378E-1,4.8853895E-1,7.869823E-1,1.0390382E0,1.2503059E0,1.6160281E0],"categories":[],"categories_nodes":[],"categories_segments":[],"categories_sizes":[],"default_left":[0,0,0,0,0,0,0,0,0,0,0,0,0,0,0,0,0,0,0,0,0,0,0,0,0,0,0,0,0,0,0,0,0,0,0,0,0,0,0,0,0,0,0,0,0,0,0,0,0,0,0],"id":21,"left_children":[1,3,5,7,9,11,13,15,17,19,21,-1,23,-1,-1,-1,25,27,29,31,33,35,37,-1,-1,-1,-1,-1,-1,-1,-1,39,41,43,45,47,49,-1,-1,-1,-1,-1,-1,-1,-1,-1,-1,-1,-1,-1,-1],"loss_changes":[8.100941E7,1.4611718E7,2.965216E6,1.306514E6,6.094666E5,5.23738E5,2.4742E5,1.61864E5,2.64068E5,1.6835627E5,1.5084194E5,0E0,3.4396E4,0E0,0E0,0E0,5.116E3,3.4748E4,1.3634E4,1.6247344E4,1.7026348E4,2.1037406E4,1.02735625E4,0E0,0E0,0E0,0E0,0E0,0E0,0E0,0E0,1.4990625E2,8.398164E2,2.2824058E3,2.7164238E3,7.718672E2,2.522E3,0E0,0E0,0E0,0E0,0E0,0E0,0E0,0E0,0E0,0E0,0E0,0E0,0E0,0E0],"parents":[2147483647,0,0,1,1,2,2,3,3,4,4,5,5,6,6,7,7,8,8,9,9,10,10,12,12,16,16,17,17,18,18,19,19,20,20,21,21,22,22,31,31,32,32,33,33,34,34,35,35,36,36],"right_children":[2,4,6,8,10,12,14,16,18,20,22,-1,24,-1,-1,-1,26,28,30,32,34,36,38,-1,-1,-1,-1,-1,-1,-1,-1,40,42,44,46,48,50,-1,-1,-1,-1,-1,-1,-1,-1,-1,-1,-1,-1,-1,-1],"split_conditions":[6.0690924E2,3.074956E2,1.07793E3,2.35125E2,4.4870685E2,8.973E2,1.19262E3,1.675E2,3.175E2,3.9199402E2,5.303835E2,3.9313188E0,1.0225E3,9.499101E0,1.1742827E1,-6.2568417E0,2.07825E2,2.792488E2,2.7632318E2,4.569E2,5.4865E2,4.831059E2,5.745275E2,6.4789176E0,8.103824E0,-5.4760985E0,-4.903042E0,-4.456285E0,-3.752876E0,-3.086661E0,-2.393036E0,4.3225E2,5.15025E2,5.1875E2,4.3335385E2,5.925E2,5.027428E2,2.1764576E0,2.9889808E0,-1.8110772E0,-1.2189151E0,-9.2971945E-1,-4.514479E-1,-3.656273E-1,-2.3914889E-2,2.1831378E-1,4.8853895E-1,7.869823E-1,1.0390382E0,1.2503059E0,1.6160281E0],"split_indices":[4,4,2,2,4,1,2,2,2,4,4,0,1,0,0,0,2,10,4,7,1,4,4,0,0,0,0,0,0,0,0,2,8,2,4,2,4,0,0,0,0,0,0,0,0,0,0,0,0,0,0],"split_type":[0,0,0,0,0,0,0,0,0,0,0,0,0,0,0,0,0,0,0,0,0,0,0,0,0,0,0,0,0,0,0,0,0,0,0,0,0,0,0,0,0,0,0,0,0,0,0,0,0,0,0],"sum_hessian":[2.503E3,1.916E3,5.87E2,1.28E3,6.36E2,1.97E2,3.9E2,7.14E2,5.66E2,3.04E2,3.32E2,5.1E1,1.46E2,8.9E1,3.01E2,3.13E2,4.01E2,4.02E2,1.64E2,8.8E1,2.16E2,2.37E2,9.5E1,5E1,9.6E1,2.35E2,1.66E2,2.34E2,1.68E2,7E1,9.4E1,4.9E1,3.9E1,7E1,1.46E2,1.08E2,1.29E2,4.7E1,4.8E1,3.9E1,1E1,3.2E1,7E0,3.2E1,3.8E1,5.8E1,8.8E1,7.7E1,3.1E1,6.1E1,6.8E1],"tree_param":{"num_deleted":"0","num_feature":"14","num_nodes":"51","size_leaf_vector":"1"}},{"base_weights":[-1.156756E0,-9.3797455E1,3.2250772E2,-1.5589984E2,2.7824629E1,2.4325462E2,3.7438324E2,-1.7830667E2,-1.0923006E2,4.6737567E-1,6.504836E1,1.5761568E2,2.6571515E2,1.0665021E1,1.2241082E1,-1.9576E2,-1.5760393E2,-1.2335223E2,-7.9590294E1,-3.5981705E1,1.3696339E1,4.900009E1,9.6790596E1,3.6612244E0,5.3981466E0,7.0249915E0,8.400445E0,-6.3729115E0,-5.617659E0,-4.9773035E0,-4.4881907E0,-3.909259E0,-3.3349142E0,-2.5514336E0,-2.0647182E0,-5.0746E1,-2.080938E1,3.8416862E0,2.1682432E1,3.9010406E1,5.740091E1,2.48775E0,3.170717E0,-1.6776307E0,-1.1978598E0,-8.1336045E-1,-4.5851144E-1,-1.15119874E-1,2.1865477E-1,5.1336884E-1,7.632215E-1,1.1762675E0,3.2312346E-1,1.5392197E0,1.9475498E0],"categories":[],"categories_nodes":[],"categories_segments":[],"categories_sizes":[],"default_left":[0,0,0,0,0,0,0,0,0,0,0,0,0,0,0,0,0,0,0,0,0,0,0,0,0,0,0,0,0,0,0,0,0,0,0,0,0,0,0,0,0,0,0,0,0,0,0,0,0,0,0,0,0,0,0],"id":22,"left_children":[1,3,5,7,9,11,13,15,17,19,21,23,25,-1,-1,27,29,31,33,35,37,39,41,-1,-1,-1,-1,-1,-1,-1,-1,-1,-1,-1,-1,43,45,47,49,51,53,-1,-1,-1,-1,-1,-1,-1,-1,-1,-1,-1,-1,-1,-1],"loss_changes":[7.532133E7,1.475539E7,2.207148E6,1.332642E6,6.730918E5,3.88981E5,6.8456E4,2.84228E5,1.66822E5,1.8468694E5,1.378915E5,1.6952125E4,1.383E4,0E0,0E0,2.6714E4,2.016E3,9.594E3,2.3139375E3,2.179289E4,2.2031457E4,1.35380625E4,2.7121875E3,0E0,0E0,0E0,0E0,0E0,0E0,0E0,0E0,0E0,0E0,0E0,0E0,6.22125E2,1.3965918E3,3.389414E3,2.2269062E3,7.6609375E1,1.2500312E3,0E0,0E0,0E0,0E0,0E0,0E0,0E0,0E0,0E0,0E0,0E0,0E0,0E0,0E0],"parents":[2147483647,0,0,1,1,2,2,3,3,4,4,5,5,6,6,7,7,8,8,9,9,10,10,11,11,12,12,15,15,16,16,17,17,18,18,19,19,20,20,21,21,22,22,35,35,36,36,37,37,38,38,39,39,40,40],"right_children":[2,4,6,8,10,12,14,16,18,20,22,24,26,-1,-1,28,30,32,34,36,38,40,42,-1,-1,-1,-1,-1,-1,-1,-1,-1,-1,-1,-1,44,46,48,50,52,54,-1,-1,-1,-1,-1,-1,-1,-1,-1,-1,-1,-1,-1,-1],"split_conditions":[7.6915E2,4.16025E2,1.14045E3,2.63375E2,4.7068677E2,9.5E2,1.2914E3,2.00062E2,3.4705E2,5.2165E2,6.69025E2,7.975E2,1.028E3,1.0665021E1,1.2241082E1,1.4462E2,2.272956E2,3.04675E2,3.87225E2,4.73575E2,5.6555E2,5.027428E2,7.264E2,3.6612244E0,5.3981466E0,7.0249915E0,8.400445E0,-6.3729115E0,-5.617659E0,-4.9773035E0,-4.4881907E0,-3.909259E0,-3.3349142E0,-2.5514336E0,-2.0647182E0,4.3225E2,4.93025E2,5.4615E2,5.808E2,6.364E2,6.53175E2,2.48775E0,3.170717E0,-1.6776307E0,-1.1978598E0,-8.1336045E-1,-4.5851144E-1,-1.15119874E-1,2.1865477E-1,5.1336884E-1,7.632215E-1,1.1762675E0,3.2312346E-1,1.5392197E0,1.9475498E0],"split_indices":[3,7,7,3,4,0,3,3,3,3,2,0,2,0,0,3,9,3,3,3,3,4,3,0,0,0,0,0,0,0,0,0,0,0,0,2,3,1,3,3,3,0,0,0,0,0,0,0,0,0,0,0,0,0,0],"split_type":[0,0,0,0,0,0,0,0,0,0,0,0,0,0,0,0,0,0,0,0,0,0,0,0,0,0,0,0,0,0,0,0,0,0,0,0,0,0,0,0,0,0,0,0,0,0,0,0,0,0,0,0,0,0,0],"sum_hessian":[2.51E3,1.952E3,5.58E2,1.292E3,6.6E2,2.23E2,3.35E2,8.71E2,4.21E2,3.81E2,2.79E2,4.8E1,1.75E2,2.22E2,1.13E2,4.68E2,4.03E2,2.83E2,1.38E2,1.01E2,2.8E2,1.87E2,9.2E1,2.1E1,2.7E1,6E1,1.15E2,1.5E2,3.18E2,1.88E2,2.15E2,1.74E2,1.09E2,8.7E1,5.1E1,5E1,5.1E1,1.26E2,1.54E2,8.8E1,9.9E1,4E1,5.2E1,3.1E1,1.9E1,2.2E1,2.9E1,3.9E1,8.7E1,7.2E1,8.2E1,8.7E1,1E0,5.9E1,4E1],"tree_param":{"num_deleted":"0","num_feature":"14","num_nodes":"55","size_leaf_vector":"1"}},{"base_weights":[9.062042E-1,-9.231031E1,3.1178735E2,-1.5088509E2,2.6358679E1,2.3799712E2,3.622268E2,-1.7394751E2,-1.0831584E2,1.8531578E0,6.253988E1,1.5525645E2,2.591768E2,1.0401747E1,1.1844927E1,-1.9084734E2,-1.5509671E2,-1.2200408E2,-7.80211E1,-3.3646164E1,1.3886658E1,4.656069E1,9.08658E1,3.5875957E0,5.287175E0,6.8444967E0,8.178998E0,-6.1411424E0,-5.4403524E0,-4.890529E0,-4.387116E0,-3.9022408E0,-3.3075747E0,-2.4938283E0,-2.0186913E0,-4.9052742E1,-1.8788212E1,3.393357E0,2.1451735E1,3.807391E1,1.62334E0,2.2709086E0,2.9908195E0,-1.6425934E0,-1.1048092E0,-7.600219E-1,-4.1243562E-1,-1.2223955E-1,2.13947E-1,4.9361292E-1,7.6468265E-1,1.14846E0,3.1827667E-1],"categories":[],"categories_nodes":[],"categories_segments":[],"categories_sizes":[],"default_left":[0,0,0,0,0,0,0,0,0,0,0,0,0,0,0,0,0,0,0,0,0,0,0,0,0,0,0,0,0,0,0,0,0,0,0,0,0,0,0,0,0,0,0,0,0,0,0,0,0,0,0,0,0],"id":23,"left_children":[1,3,5,7,9,11,13,15,17,19,21,23,25,-1,-1,27,29,31,33,35,37,39,41,-1,-1,-1,-1,-1,-1,-1,-1,-1,-1,-1,-1,43,45,47,49,51,-1,-1,-1,-1,-1,-1,-1,-1,-1,-1,-1,-1,-1],"loss_changes":[7.2737736E7,1.3426375E7,2.068792E6,1.250562E6,5.664466E5,3.76837E5,3.596E4,2.37046E5,1.79991E5,1.6365039E5,1.1254656E5,1.709525E4,1.6292E4,0E0,0E0,2.042E4,4.302E3,1.53445E4,2.3523125E3,2.128268E4,2.2630633E4,8.641219E3,4.7735E3,0E0,0E0,0E0,0E0,0E0,0E0,0E0,0E0,0E0,0E0,0E0,0E0,1.2591094E3,1.334375E3,3.4070142E3,2.9305234E3,6.2492188E1,0E0,0E0,0E0,0E0,0E0,0E0,0E0,0E0,0E0,0E0,0E0,0E0,0E0],"parents":[2147483647,0,0,1,1,2,2,3,3,4,4,5,5,6,6,7,7,8,8,9,9,10,10,11,11,12,12,15,15,16,16,17,17,18,18,19,19,20,20,21,21,22,22,35,35,36,36,37,37,38,38,39,39],"right_children":[2,4,6,8,10,12,14,16,18,20,22,24,26,-1,-1,28,30,32,34,36,38,40,42,-1,-1,-1,-1,-1,-1,-1,-1,-1,-1,-1,-1,44,46,48,50,52,-1,-1,-1,-1,-1,-1,-1,-1,-1,-1,-1,-1,-1],"split_conditions":[7.6915E2,4.16025E2,1.1462E3,2.625E2,6.046E2,9.5395E2,1.2914E3,1.939725E2,3.4442E2,5.2165E2,5.392331E2,7.82885E2,1.028E3,1.0401747E1,1.1844927E1,1.49533E2,2.23833E2,2.9795E2,3.87225E2,4.7416E2,4.350424E2,5.027428E2,7.1885E2,3.5875957E0,5.287175E0,6.8444967E0,8.178998E0,-6.1411424E0,-5.4403524E0,-4.890529E0,-4.387116E0,-3.9022408E0,-3.3075747E0,-2.4938283E0,-2.0186913E0,4.36025E2,4.93025E2,5.4615E2,5.808E2,6.364E2,1.62334E0,2.2709086E0,2.9908195E0,-1.6425934E0,-1.1048092E0,-7.600219E-1,-4.1243562E-1,-1.2223955E-1,2.13947E-1,4.9361292E-1,7.6468265E-1,1.14846E0,3.1827667E-1],"split_indices":[3,7,6,1,3,3,3,10,10,3,4,10,2,0,0,6,3,6,3,9,4,4,3,0,0,0,0,0,0,0,0,0,0,0,0,6,3,1,3,3,0,0,0,0,0,0,0,0,0,0,0,0,0],"split_type":[0,0,0,0,0,0,0,0,0,0,0,0,0,0,0,0,0,0,0,0,0,0,0,0,0,0,0,0,0,0,0,0,0,0,0,0,0,0,0,0,0,0,0,0,0,0,0,0,0,0,0,0,0],"sum_hessian":[2.508E3,1.93E3,5.78E2,1.292E3,6.38E2,2.37E2,3.41E2,8.36E2,4.56E2,3.81E2,2.57E2,5E1,1.87E2,2.39E2,1.02E2,4.36E2,4E2,3.12E2,1.44E2,9.6E1,2.85E2,1.66E2,9.1E1,2.1E1,2.9E1,6.2E1,1.25E2,1.69E2,2.67E2,2.02E2,1.98E2,1.79E2,1.33E2,9.3E1,5.1E1,4.6E1,5E1,1.2E2,1.65E2,8.1E1,8.5E1,3.7E1,5.4E1,2.9E1,1.7E1,2E1,3E1,4E1,8E1,7.6E1,8.9E1,8E1,1E0],"tree_param":{"num_deleted":"0","num_feature":"14","num_nodes":"53","size_leaf_vector":"1"}},{"base_weights":[-2.1179829E0,-8.918874E1,3.0578824E2,-1.4696817E2,2.544773E1,2.3397417E2,3.5339053E2,-1.7019905E2,-1.0780425E2,4.6682042E-1,5.9965107E1,1.5054071E2,2.525027E2,1.0105946E1,1.15272255E1,-1.8491544E2,-4.546144E0,-1.2152647E2,-7.827473E1,-3.568638E1,1.1608331E1,4.462917E1,8.9020164E1,3.461749E0,5.0725393E0,6.4436026E0,7.934986E0,-5.9965014E0,-5.302955E0,-3.882041E0,-3.284643E0,-2.5964243E0,-2.0635898E0,-4.7958588E1,-2.0519123E1,1.6981488E0,1.98873E1,3.7838383E1,1.6343535E0,2.268193E0,2.9793634E0,-1.6056302E0,-1.0907677E0,-7.987507E-1,-4.4490963E-1,-2.5727233E-1,1.501622E-1,4.267047E-1,6.9528717E-1,9.779053E-1,1.2132828E0],"categories":[],"categories_nodes":[],"categories_segments":[],"categories_sizes":[],"default_left":[0,0,0,0,0,0,0,0,0,0,0,0,0,0,0,0,0,0,0,0,0,0,0,0,0,0,0,0,0,0,0,0,0,0,0,0,0,0,0,0,0,0,0,0,0,0,0,0,0,0,0],"id":24,"left_children":[1,3,5,7,9,11,13,15,17,19,21,23,25,-1,-1,27,-1,29,31,33,35,37,39,-1,-1,-1,-1,-1,-1,-1,-1,-1,-1,41,43,45,47,49,-1,-1,-1,-1,-1,-1,-1,-1,-1,-1,-1,-1,-1],"loss_changes":[6.713178E7,1.2933066E7,1.804336E6,1.16259E6,5.647624E5,3.06724E5,3.8804E4,1.95246E5,1.874195E5,1.5388153E5,1.185635E5,8.5165E3,2.5085E4,0E0,0E0,1.9564E4,0E0,1.71165E4,6.3704375E3,1.5768141E4,2.3923688E4,1.0111594E4,5.468375E3,0E0,0E0,0E0,0E0,0E0,0E0,0E0,0E0,0E0,0E0,1.215625E3,1.0640234E3,4.596033E3,2.6321914E3,1.969375E2,0E0,0E0,0E0,0E0,0E0,0E0,0E0,0E0,0E0,0E0,0E0,0E0,0E0],"parents":[2147483647,0,0,1,1,2,2,3,3,4,4,5,5,6,6,7,7,8,8,9,9,10,10,11,11,12,12,15,15,17,17,18,18,19,19,20,20,21,21,22,22,33,33,34,34,35,35,36,36,37,37],"right_children":[2,4,6,8,10,12,14,16,18,20,22,24,26,-1,-1,28,-1,30,32,34,36,38,40,-1,-1,-1,-1,-1,-1,-1,-1,-1,-1,42,44,46,48,50,-1,-1,-1,-1,-1,-1,-1,-1,-1,-1,-1,-1,-1],"split_conditions":[7.6915E2,4.16025E2,1.17538E3,2.514848E2,4.7068677E2,9.5E2,1.2914E3,1.939725E2,3.26575E2,5.0625E2,5.392331E2,7.85145E2,8.580644E2,1.0105946E1,1.15272255E1,1.4462E2,-4.546144E0,2.91663E2,3.7925E2,4.73575E2,5.62775E2,6.2925E2,7.264E2,3.461749E0,5.0725393E0,6.4436026E0,7.934986E0,-5.9965014E0,-5.302955E0,-3.882041E0,-3.284643E0,-2.5964243E0,-2.0635898E0,4.3225E2,-5.675894E-3,5.37375E2,5.75575E2,6.12675E2,1.6343535E0,2.268193E0,2.9793634E0,-1.6056302E0,-1.0907677E0,-7.987507E-1,-4.4490963E-1,-2.5727233E-1,1.501622E-1,4.267047E-1,6.9528717E-1,9.779053E-1,1.2132828E0],"split_indices":[3,7,3,9,4,0,3,10,3,2,4,9,4,0,0,3,0,3,3,3,3,2,3,0,0,0,0,0,0,0,0,0,0,2,12,1,3,3,0,0,0,0,0,0,0,0,0,0,0,0,0],"split_type":[0,0,0,0,0,0,0,0,0,0,0,0,0,0,0,0,0,0,0,0,0,0,0,0,0,0,0,0,0,0,0,0,0,0,0,0,0,0,0,0,0,0,0,0,0,0,0,0,0,0,0],"sum_hessian":[2.502E3,1.951E3,5.51E2,1.297E3,6.54E2,2.22E2,3.29E2,8.12E2,4.85E2,3.8E2,2.74E2,4.2E1,1.8E2,2.22E2,1.07E2,4.49E2,3.63E2,3.29E2,1.56E2,8.9E1,2.91E2,1.81E2,9.3E1,1.7E1,2.5E1,4.8E1,1.32E2,1.5E2,2.99E2,1.93E2,1.36E2,7.9E1,7.7E1,4.8E1,4.1E1,1.33E2,1.58E2,1.1E2,7.1E1,4.4E1,4.9E1,3E1,1.8E1,1.8E1,2.3E1,3.2E1,1.01E2,6E1,9.8E1,4.1E1,6.9E1],"tree_param":{"num_deleted":"0","num_feature":"14","num_nodes":"51","size_leaf_vector":"1"}},{"base_weights":[-9.9947494E-1,-8.68832E1,2.9584464E2,-1.4261827E2,2.3352457E1,2.2651083E2,3.433379E2,-1.6754346E2,-1.0897506E2,-1.1310682E0,5.9801716E1,1.4530534E2,2.4701662E2,9.719739E0,1.1013298E1,-5.5526633E0,-1.5447449E2,-1.2253372E2,-7.889374E1,-4.0554806E1,1.0962647E1,4.293432E1,8.422039E1,3.3710995E0,4.9798093E0,6.4664955E0,7.8294954E0,-4.863311E0,-4.350191E0,-3.955621E0,-3.3597083E0,-2.720621E0,-2.119842E0,-1.5988995E0,-2.878572E1,1.4092741E0,2.0380154E1,3.704938E1,1.5476547E0,2.0864103E0,2.829326E0,-9.6472824E-1,-5.014544E-1,-1.5563393E-1,2.1279146E-1,4.8536548E-1,7.088177E-1,9.845265E-1,1.2205702E0],"categories":[],"categories_nodes":[],"categories_segments":[],"categories_sizes":[],"default_left":[0,0,0,0,0,0,0,0,0,0,0,0,0,0,0,0,0,0,0,0,0,0,0,0,0,0,0,0,0,0,0,0,0,0,0,0,0,0,0,0,0,0,0,0,0,0,0,0,0],"id":25,"left_children":[1,3,5,7,9,11,13,15,17,19,21,23,25,-1,-1,-1,27,29,31,33,35,37,39,-1,-1,-1,-1,-1,-1,-1,-1,-1,-1,-1,41,43,45,47,-1,-1,-1,-1,-1,-1,-1,-1,-1,-1,-1],"loss_changes":[6.373541E7,1.191653E7,1.76954E6,1.061812E6,5.8191656E5,3.48765E5,3.3292E4,1.40632E5,2.150655E5,1.8686534E5,1.042965E5,1.47346875E4,2.4171E4,0E0,0E0,0E0,7.509E3,2.2379E4,1.048525E4,1.2262141E4,2.6961957E4,6.0845625E3,9.1354375E3,0E0,0E0,0E0,0E0,0E0,0E0,0E0,0E0,0E0,0E0,0E0,1.4975117E3,5.661237E3,1.6776953E3,1.5745312E2,0E0,0E0,0E0,0E0,0E0,0E0,0E0,0E0,0E0,0E0,0E0],"parents":[2147483647,0,0,1,1,2,2,3,3,4,4,5,5,6,6,7,7,8,8,9,9,10,10,11,11,12,12,16,16,17,17,18,18,19,19,20,20,21,21,22,22,34,34,35,35,36,36,37,37],"right_children":[2,4,6,8,10,12,14,16,18,20,22,24,26,-1,-1,-1,28,30,32,34,36,38,40,-1,-1,-1,-1,-1,-1,-1,-1,-1,-1,-1,42,44,46,48,-1,-1,-1,-1,-1,-1,-1,-1,-1,-1,-1],"split_conditions":[7.6915E2,4.1085E2,1.17538E3,2.419E2,6.046E2,9.5395E2,1.27968E3,1.70432E2,3.21375E2,5.077E2,6.64275E2,7.91575E2,1.04732E3,9.719739E0,1.1013298E1,-5.5526633E0,2.1035E2,2.74225E2,3.69E2,4.4125E2,5.6555E2,6.2925E2,7.1885E2,3.3710995E0,4.9798093E0,6.4664955E0,7.8294954E0,-4.863311E0,-4.350191E0,-3.955621E0,-3.3597083E0,-2.720621E0,-2.119842E0,-1.5988995E0,4.908E2,5.4175E2,5.808E2,6.24E2,1.5476547E0,2.0864103E0,2.829326E0,-9.6472824E-1,-5.014544E-1,-1.5563393E-1,2.1279146E-1,4.8536548E-1,7.088177E-1,9.845265E-1,1.2205702E0],"split_indices":[3,3,3,3,3,3,3,3,3,3,6,7,3,0,0,0,3,3,3,1,3,2,3,0,0,0,0,0,0,0,0,0,0,0,8,3,3,1,0,0,0,0,0,0,0,0,0,0,0],"split_type":[0,0,0,0,0,0,0,0,0,0,0,0,0,0,0,0,0,0,0,0,0,0,0,0,0,0,0,0,0,0,0,0,0,0,0,0,0,0,0,0,0,0,0,0,0,0,0,0,0],"sum_hessian":[2.498E3,1.938E3,5.6E2,1.287E3,6.51E2,2.3E2,3.3E2,7.37E2,5.5E2,3.9E2,2.61E2,4.8E1,1.82E2,1.9E2,1.4E2,3.09E2,4.28E2,3.77E2,1.73E2,9.1E1,2.99E2,1.56E2,1.05E2,2.1E1,2.7E1,6.1E1,1.21E2,2.28E2,2E2,1.94E2,1.83E2,6.7E1,1.06E2,4.2E1,4.9E1,1.49E2,1.5E2,9.6E1,6E1,4.6E1,5.9E1,3.7E1,1.2E1,6.9E1,8E1,6.8E1,8.2E1,4.9E1,4.7E1],"tree_param":{"num_deleted":"0","num_feature":"14","num_nodes":"49","size_leaf_vector":"1"}},{"base_weights":[8.0615956E-1,-8.7825195E1,2.7378363E2,-1.3915404E2,1.864761E1,1.7685829E2,3.2029263E2,-1.6382999E2,-1.0819446E2,-1.1625204E1,4.0851994E1,1.0786122E2,2.1290358E2,8.0739355E0,3.3708084E2,-5.383477E0,-1.5082101E2,-1.2271553E2,-8.3231186E1,-4.1153008E1,1.8909354E0,2.8196154E1,6.420122E1,2.9439309E0,3.7906632E0,5.449515E0,6.783323E0,9.721704E0,1.1082564E1,-4.7324057E0,-4.2482457E0,-3.8854609E0,-3.3564146E0,-2.8499568E0,-2.0882852E0,-1.5479051E0,-2.945072E1,-1.0254914E1,6.7722783E0,2.0374289E1,3.6253033E1,1.6637005E0,2.3815134E0,-9.643276E-1,-5.365902E-1,-4.6439153E-1,-2.1100664E-1,1.4312822E-2,2.602527E-1,4.7728008E-1,6.6295326E-1,9.005738E-1,1.181579E0],"categories":[],"categories_nodes":[],"categories_segments":[],"categories_sizes":[],"default_left":[0,0,0,0,0,0,0,0,0,0,0,0,0,0,0,0,0,0,0,0,0,0,0,0,0,0,0,0,0,0,0,0,0,0,0,0,0,0,0,0,0,0,0,0,0,0,0,0,0,0,0,0,0],"id":26,"left_children":[1,3,5,7,9,11,13,15,17,19,21,23,25,-1,27,-1,29,31,33,35,37,39,41,-1,-1,-1,-1,-1,-1,-1,-1,-1,-1,-1,-1,-1,43,45,47,49,51,-1,-1,-1,-1,-1,-1,-1,-1,-1,-1,-1,-1],"loss_changes":[6.050996E7,1.0320753E7,2.706692E6,9.55556E5,4.138713E5,4.769265E5,2.64008E5,1.16592E5,1.956825E5,1.0424342E5,1.0309369E5,3.771875E2,1.29995E4,0E0,9.588E3,0E0,2.674E3,1.1812E4,2.7368875E4,8.502203E3,1.07413E4,1.3881969E4,1.2060406E4,0E0,0E0,0E0,0E0,0E0,0E0,0E0,0E0,0E0,0E0,0E0,0E0,0E0,7.0216797E2,7.663325E2,1.5410947E3,5.7222656E2,1.0246094E3,0E0,0E0,0E0,0E0,0E0,0E0,0E0,0E0,0E0,0E0,0E0,0E0],"parents":[2147483647,0,0,1,1,2,2,3,3,4,4,5,5,6,6,7,7,8,8,9,9,10,10,11,11,12,12,14,14,16,16,17,17,18,18,19,19,20,20,21,21,22,22,36,36,37,37,38,38,39,39,40,40],"right_children":[2,4,6,8,10,12,14,16,18,20,22,24,26,-1,28,-1,30,32,34,36,38,40,42,-1,-1,-1,-1,-1,-1,-1,-1,-1,-1,-1,-1,-1,44,46,48,50,52,-1,-1,-1,-1,-1,-1,-1,-1,-1,-1,-1,-1],"split_conditions":[7.35375E2,4.1045E2,9.011511E2,2.37462E2,5.693E2,8.88725E2,1.20253E3,1.7027E2,3.0885E2,4.93025E2,6.403E2,7.8025E2,8.2636035E2,8.0739355E0,1.3005E3,-5.383477E0,2.09212E2,2.71837E2,3.675E2,4.356E2,5.2265E2,5.925E2,6.892E2,2.9439309E0,3.7906632E0,5.449515E0,6.783323E0,9.721704E0,1.1082564E1,-4.7324057E0,-4.2482457E0,-3.8854609E0,-3.3564146E0,-2.8499568E0,-2.0882852E0,-1.5479051E0,4.908E2,-3.9732093E-3,5.4865E2,5.78575E2,6.12675E2,1.6637005E0,2.3815134E0,-9.643276E-1,-5.365902E-1,-4.6439153E-1,-2.1100664E-1,1.4312822E-2,2.602527E-1,4.7728008E-1,6.6295326E-1,9.005738E-1,1.181579E0],"split_indices":[3,6,4,6,3,3,3,6,3,3,3,3,4,0,3,0,3,3,1,8,2,2,3,0,0,0,0,0,0,0,0,0,0,0,0,0,8,12,1,3,3,0,0,0,0,0,0,0,0,0,0,0,0],"split_type":[0,0,0,0,0,0,0,0,0,0,0,0,0,0,0,0,0,0,0,0,0,0,0,0,0,0,0,0,0,0,0,0,0,0,0,0,0,0,0,0,0,0,0,0,0,0,0,0,0,0,0,0,0],"sum_hessian":[2.499E3,1.887E3,6.12E2,1.273E3,6.14E2,2E2,4.12E2,7.06E2,5.67E2,2.6E2,3.54E2,7E1,1.3E2,1.06E2,3.06E2,3.15E2,3.91E2,3.56E2,2.11E2,8.1E1,1.79E2,2.31E2,1.23E2,5E1,2E1,4.3E1,8.7E1,2.26E2,8E1,2.14E2,1.77E2,2.12E2,1.44E2,1.1E2,1.01E2,4.1E1,4E1,5.1E1,1.28E2,1.19E2,1.12E2,8.1E1,4.2E1,3.1E1,9E0,1.8E1,3.3E1,3E1,9.8E1,3.6E1,8.3E1,4.1E1,7.1E1],"tree_param":{"num_deleted":"0","num_feature":"14","num_nodes":"53","size_leaf_vector":"1"}},{"base_weights":[-1.0276376E0,-8.557337E1,2.636329E2,-1.3576257E2,1.50992565E1,1.6751198E2,3.0848712E2,-1.6043217E2,-1.07494316E2,-2.8985037E1,3.1253103E1,1.04116646E2,2.0459184E2,7.997844E0,9.88596E0,-5.280443E0,-4.475517E0,-1.2060732E2,-8.40489E1,-4.8934822E1,-1.1128246E1,1.7278538E1,5.4364426E1,2.8432195E0,3.6567419E0,5.278709E0,6.4924273E0,-3.8246505E0,-3.3374152E0,-2.836345E0,-2.1133857E0,-1.5868199E0,-9.707731E-1,-2.1332155E1,-5.7602224E0,1.1139025E1,2.798969E1,1.2707218E0,6.894007E1,-8.191281E-1,-4.2080343E-1,-2.5421488E-1,-1.6936922E-2,2.118624E-1,4.9358097E-1,6.797682E-1,9.202472E-1,1.770496E0,2.2993178E0],"categories":[],"categories_nodes":[],"categories_segments":[],"categories_sizes":[],"default_left":[0,0,0,0,0,0,0,0,0,0,0,0,0,0,0,0,0,0,0,0,0,0,0,0,0,0,0,0,0,0,0,0,0,0,0,0,0,0,0,0,0,0,0,0,0,0,0,0,0],"id":27,"left_children":[1,3,5,7,9,11,13,15,17,19,21,23,25,-1,-1,-1,-1,27,29,31,33,35,37,-1,-1,-1,-1,-1,-1,-1,-1,-1,-1,39,41,43,45,-1,47,-1,-1,-1,-1,-1,-1,-1,-1,-1,-1],"loss_changes":[5.6007108E7,9.586981E6,2.561052E6,8.65622E5,4.5097256E5,4.370835E5,2.75376E5,9.1878E4,1.721745E5,6.0016094E4,1.4859612E5,7.365625E2,3.2215E3,0E0,0E0,0E0,0E0,1.01635E4,2.4178625E4,3.5385E3,4.861631E3,1.8758984E4,2.7531656E4,0E0,0E0,0E0,0E0,0E0,0E0,0E0,0E0,0E0,0E0,9.6949414E2,8.552533E2,3.9132324E3,8.079297E2,0E0,1.3633438E3,0E0,0E0,0E0,0E0,0E0,0E0,0E0,0E0,0E0,0E0],"parents":[2147483647,0,0,1,1,2,2,3,3,4,4,5,5,6,6,7,7,8,8,9,9,10,10,11,11,12,12,17,17,18,18,19,19,20,20,21,21,22,22,33,33,34,34,35,35,36,36,38,38],"right_children":[2,4,6,8,10,12,14,16,18,20,22,24,26,-1,-1,-1,-1,28,30,32,34,36,38,-1,-1,-1,-1,-1,-1,-1,-1,-1,-1,40,42,44,46,-1,48,-1,-1,-1,-1,-1,-1,-1,-1,-1,-1],"split_conditions":[7.26025E2,2.9570547E2,8.958717E2,2.315748E2,4.1651364E2,8.973E2,1.2174E3,1.61562E2,3.10375E2,4.7416E2,4.9290784E2,6.3232446E2,8.2636035E2,7.997844E0,9.88596E0,-5.280443E0,-4.475517E0,2.69825E2,3.53095E2,4.3225E2,4.99225E2,5.945E2,6.522E2,2.8432195E0,3.6567419E0,5.278709E0,6.4924273E0,-3.8246505E0,-3.3374152E0,-2.836345E0,-2.1133857E0,-1.5868199E0,-9.707731E-1,-5.675894E-3,5.3115E2,4.400546E2,5.971E2,1.2707218E0,5.565321E2,-8.191281E-1,-4.2080343E-1,-2.5421488E-1,-1.6936922E-2,2.118624E-1,4.9358097E-1,6.797682E-1,9.202472E-1,1.770496E0,2.2993178E0],"split_indices":[2,4,4,9,4,1,2,2,1,9,4,4,4,0,0,0,0,1,9,2,2,1,2,0,0,0,0,0,0,0,0,0,0,12,6,4,6,0,4,0,0,0,0,0,0,0,0,0,0],"split_type":[0,0,0,0,0,0,0,0,0,0,0,0,0,0,0,0,0,0,0,0,0,0,0,0,0,0,0,0,0,0,0,0,0,0,0,0,0,0,0,0,0,0,0,0,0,0,0,0,0],"sum_hessian":[2.501E3,1.896E3,6.05E2,1.265E3,6.31E2,1.94E2,4.11E2,6.73E2,5.92E2,1.69E2,4.62E2,7.3E1,1.21E2,1.42E2,2.69E2,2.76E2,3.97E2,3.77E2,2.15E2,7.9E1,9E1,2.89E2,1.73E2,5.2E1,2.1E1,4E1,8.1E1,2.1E2,1.67E2,1.18E2,9.7E1,6.2E1,1.7E1,3E1,6E1,1.85E2,1.04E2,9.7E1,7.6E1,1.5E1,1.5E1,3.9E1,2.1E1,1.06E2,7.9E1,3.8E1,6.6E1,3.7E1,3.9E1],"tree_param":{"num_deleted":"0","num_feature":"14","num_nodes":"49","size_leaf_vector":"1"}},{"base_weights":[8.1051505E-1,-7.775109E1,2.7046268E2,-1.2947006E2,2.2809452E1,2.0612999E2,3.1440964E2,-1.5298824E2,-9.892154E1,1.6780249E0,5.519362E1,1.4089268E2,2.2768877E2,8.965578E0,1.0280737E1,-1.6823567E2,-1.4023593E2,-1.1071641E2,-6.998191E1,-3.421278E1,1.0814746E1,4.2839382E1,2.4690218E0,3.0651727E0,4.7736673E0,6.0866966E0,7.1748705E0,-5.412998E0,-4.7936926E0,-4.392896E0,-3.930395E0,-3.5511181E0,-2.9778023E0,-2.445435E0,-1.8974186E0,-1.3398778E0,-2.3445988E1,1.4436343E0,1.9068308E1,3.6957264E1,1.6372476E0,-8.627852E-1,-5.3418434E-1,-1.5944342E-1,1.8024892E-1,4.1717392E-1,6.7734313E-1,9.29093E-1,1.1903865E0],"categories":[],"categories_nodes":[],"categories_segments":[],"categories_sizes":[],"default_left":[0,0,0,0,0,0,0,0,0,0,0,0,0,0,0,0,0,0,0,0,0,0,0,0,0,0,0,0,0,0,0,0,0,0,0,0,0,0,0,0,0,0,0,0,0,0,0,0,0],"id":28,"left_children":[1,3,5,7,9,11,13,15,17,19,21,23,25,-1,-1,27,29,31,33,35,37,39,-1,-1,-1,-1,-1,-1,-1,-1,-1,-1,-1,-1,-1,-1,41,43,45,47,-1,-1,-1,-1,-1,-1,-1,-1,-1],"loss_changes":[5.2769956E7,1.0035465E7,1.524092E6,9.00166E5,4.488237E5,2.92807E5,4.3658E4,1.16016E5,1.823775E5,1.3088386E5,8.3210125E4,2.6093375E4,4.16E2,0E0,0E0,4.341E3,3.4945E3,2.28E4,7.582E3,8.0662266E3,2.45682E4,1.0408469E4,0E0,0E0,0E0,0E0,0E0,0E0,0E0,0E0,0E0,0E0,0E0,0E0,0E0,0E0,7.4653516E2,4.659416E3,2.7482031E3,7.759844E2,0E0,0E0,0E0,0E0,0E0,0E0,0E0,0E0,0E0],"parents":[2147483647,0,0,1,1,2,2,3,3,4,4,5,5,6,6,7,7,8,8,9,9,10,10,11,11,12,12,15,15,16,16,17,17,18,18,19,19,20,20,21,21,36,36,37,37,38,38,39,39],"right_children":[2,4,6,8,10,12,14,16,18,20,22,24,26,-1,-1,28,30,32,34,36,38,40,-1,-1,-1,-1,-1,-1,-1,-1,-1,-1,-1,-1,-1,-1,42,44,46,48,-1,-1,-1,-1,-1,-1,-1,-1,-1],"split_conditions":[7.6915E2,4.16025E2,1.17538E3,2.419E2,6.08375E2,9.7755E2,1.2914E3,1.7382E2,3.23575E2,5.077E2,6.892E2,7.85145E2,8.789483E2,8.965578E0,1.0280737E1,1.42087E2,2.1322E2,2.857E2,3.69E2,4.569E2,5.6555E2,6.439E2,2.4690218E0,3.0651727E0,4.7736673E0,6.0866966E0,7.1748705E0,-5.412998E0,-4.7936926E0,-4.392896E0,-3.930395E0,-3.5511181E0,-2.9778023E0,-2.445435E0,-1.8974186E0,-1.3398778E0,4.79825E2,4.1651364E2,4.4870685E2,6.24E2,1.6372476E0,-8.627852E-1,-5.3418434E-1,-1.5944342E-1,1.8024892E-1,4.1717392E-1,6.7734313E-1,9.29093E-1,1.1903865E0],"split_indices":[3,7,3,3,3,3,3,3,3,3,3,9,4,0,0,3,3,3,3,7,3,2,0,0,0,0,0,0,0,0,0,0,0,0,0,0,7,4,4,1,0,0,0,0,0,0,0,0,0],"split_type":[0,0,0,0,0,0,0,0,0,0,0,0,0,0,0,0,0,0,0,0,0,0,0,0,0,0,0,0,0,0,0,0,0,0,0,0,0,0,0,0,0,0,0,0,0,0,0,0,0],"sum_hessian":[2.489E3,1.928E3,5.61E2,1.273E3,6.55E2,2.3E2,3.31E2,7.17E2,5.56E2,3.97E2,2.58E2,5.9E1,1.71E2,2.21E2,1.1E2,3.21E2,3.96E2,3.93E2,1.63E2,8E1,3.17E2,1.79E2,7.9E1,2.1E1,3.8E1,6E1,1.11E2,1.23E2,1.98E2,2.28E2,1.68E2,2.3E2,1.63E2,5.6E1,1.07E2,3.9E1,4.1E1,1.49E2,1.68E2,1.22E2,5.7E1,1.9E1,2.2E1,6E1,8.9E1,7E1,9.8E1,4.2E1,8E1],"tree_param":{"num_deleted":"0","num_feature":"14","num_nodes":"49","size_leaf_vector":"1"}},{"base_weights":[1.2364004E0,-7.5637184E1,2.6126752E2,-1.2635192E2,2.306792E1,1.9722769E2,3.0247388E2,-1.4614836E2,-9.205837E1,2.479379E-2,5.1832554E1,1.2852397E2,2.1629755E2,8.425923E0,9.639219E0,-1.5981715E2,-1.306891E2,-1.03003105E2,-6.418057E1,-3.2490494E1,9.756394E0,3.8246597E1,7.66546E1,2.9872696E0,4.3930063E0,5.5576997E0,6.7734966E0,-5.174225E0,-4.5702157E0,-4.113899E0,-3.7030015E0,-3.287175E0,-2.7576234E0,-2.0644636E0,-1.6687133E0,-4.105156E1,-1.9697609E1,-7.5770944E-2,1.5790199E1,3.1079458E1,4.4945553E1,1.9746672E0,2.5803852E0,-1.2483696E0,-2.0361556E-1,-7.424751E-1,-4.3256706E-1,-1.6787712E-1,9.23902E-2,3.050105E-1,5.627771E-1,9.3751717E-1,2.2235411E-1,1.225427E0,1.5496604E0],"categories":[],"categories_nodes":[],"categories_segments":[],"categories_sizes":[],"default_left":[0,0,0,0,0,0,0,0,0,0,0,0,0,0,0,0,0,0,0,0,0,0,0,0,0,0,0,0,0,0,0,0,0,0,0,0,0,0,0,0,0,0,0,0,0,0,0,0,0,0,0,0,0,0,0],"id":29,"left_children":[1,3,5,7,9,11,13,15,17,19,21,23,25,-1,-1,27,29,31,33,35,37,39,41,-1,-1,-1,-1,-1,-1,-1,-1,-1,-1,-1,-1,43,45,47,49,51,53,-1,-1,-1,-1,-1,-1,-1,-1,-1,-1,-1,-1,-1,-1],"loss_changes":[5.0373372E7,9.739204E6,1.45768E6,8.58918E5,4.3812747E5,2.7092E5,5.1388E4,1.50908E5,1.3770875E5,1.1676168E5,9.621419E4,1.23783125E4,1.02885E4,0E0,0E0,1.4133E4,1.1595E3,1.453575E4,1.566E3,8.500648E3,1.6849602E4,7.8214688E3,4.77975E3,0E0,0E0,0E0,0E0,0E0,0E0,0E0,0E0,0E0,0E0,0E0,0E0,6.7827344E2,6.0311035E2,1.9158473E3,2.747668E3,1.5717188E2,5.571719E2,0E0,0E0,0E0,0E0,0E0,0E0,0E0,0E0,0E0,0E0,0E0,0E0,0E0,0E0],"parents":[2147483647,0,0,1,1,2,2,3,3,4,4,5,5,6,6,7,7,8,8,9,9,10,10,11,11,12,12,15,15,16,16,17,17,18,18,19,19,20,20,21,21,22,22,35,35,36,36,37,37,38,38,39,39,40,40],"right_children":[2,4,6,8,10,12,14,16,18,20,22,24,26,-1,-1,28,30,32,34,36,38,40,42,-1,-1,-1,-1,-1,-1,-1,-1,-1,-1,-1,-1,44,46,48,50,52,54,-1,-1,-1,-1,-1,-1,-1,-1,-1,-1,-1,-1,-1,-1],"split_conditions":[7.6915E2,3.160708E2,1.1462E3,2.52762E2,5.997E2,9.5E2,1.26828E3,1.90137E2,3.334275E2,5.0625E2,6.7105E2,7.85145E2,1.030214E3,8.425923E0,9.639219E0,1.4462E2,2.19762E2,2.97975E2,3.87225E2,4.73575E2,5.5615E2,5.027428E2,7.264E2,2.9872696E0,4.3930063E0,5.5576997E0,6.7734966E0,-5.174225E0,-4.5702157E0,-4.113899E0,-3.7030015E0,-3.287175E0,-2.7576234E0,-2.0644636E0,-1.6687133E0,4.908E2,4.92025E2,5.34575E2,5.706E2,6.364E2,6.53175E2,1.9746672E0,2.5803852E0,-1.2483696E0,-2.0361556E-1,-7.424751E-1,-4.3256706E-1,-1.6787712E-1,9.23902E-2,3.050105E-1,5.627771E-1,9.3751717E-1,2.2235411E-1,1.225427E0,1.5496604E0],"split_indices":[3,4,6,3,3,0,3,3,11,2,3,9,9,0,0,3,3,3,3,3,3,4,3,0,0,0,0,0,0,0,0,0,0,0,0,8,7,3,3,3,3,0,0,0,0,0,0,0,0,0,0,0,0,0,0],"split_type":[0,0,0,0,0,0,0,0,0,0,0,0,0,0,0,0,0,0,0,0,0,0,0,0,0,0,0,0,0,0,0,0,0,0,0,0,0,0,0,0,0,0,0,0,0,0,0,0,0,0,0,0,0,0,0],"sum_hessian":[2.518E3,1.944E3,5.74E2,1.284E3,6.6E2,2.27E2,3.47E2,8.12E2,4.72E2,3.67E2,2.93E2,5.1E1,1.76E2,1.69E2,1.78E2,4.26E2,3.86E2,3.37E2,1.35E2,8.4E1,2.83E2,1.91E2,1.02E2,2.2E1,2.9E1,4.6E1,1.3E2,1.5E2,2.76E2,1.95E2,1.91E2,2.06E2,1.31E2,8.3E1,5.2E1,4.9E1,3.5E1,1.08E2,1.75E2,9.5E1,9.6E1,5.1E1,5.1E1,4.8E1,1E0,1.6E1,1.9E1,3.9E1,6.9E1,6.2E1,1.13E2,9.4E1,1E0,6.4E1,3.2E1],"tree_param":{"num_deleted":"0","num_feature":"14","num_nodes":"55","size_leaf_vector":"1"}},{"base_weights":[-3.0281124E-1,-7.425412E1,2.519175E2,-1.2188149E2,2.126467E1,1.9066246E2,2.9559668E2,-1.3962749E2,-8.610541E1,3.897833E-1,4.947875E1,3.2700377E0,2.086217E2,8.272671E0,9.448536E0,-1.5379459E2,-1.2399031E2,-9.694275E1,-6.3041573E1,-2.9456984E1,1.0088591E1,3.6241543E1,7.09747E1,5.4136477E0,6.6520615E0,-5.0126705E0,-4.413024E0,-3.9662178E0,-3.5414217E0,-3.0863132E0,-2.6341212E0,-2.0246823E0,-1.6105702E0,-3.9261936E1,-1.7598852E1,3.1280458E-1,1.57755575E1,2.9063602E1,1.2543647E0,1.7918866E0,2.4136908E0,-1.314099E0,-9.146039E-1,-6.551971E-1,-3.634755E-1,-1.9721198E-1,8.077787E-2,3.2959908E-1,5.857172E-1,8.781512E-1,1.9559601E-1],"categories":[],"categories_nodes":[],"categories_segments":[],"categories_sizes":[],"default_left":[0,0,0,0,0,0,0,0,0,0,0,0,0,0,0,0,0,0,0,0,0,0,0,0,0,0,0,0,0,0,0,0,0,0,0,0,0,0,0,0,0,0,0,0,0,0,0,0,0,0,0],"id":30,"left_children":[1,3,5,7,9,11,13,15,17,19,21,-1,23,-1,-1,25,27,29,31,33,35,37,39,-1,-1,-1,-1,-1,-1,-1,-1,-1,-1,41,43,45,47,49,-1,-1,-1,-1,-1,-1,-1,-1,-1,-1,-1,-1,-1],"loss_changes":[4.6480892E7,8.76911E6,1.455336E6,8.04438E5,3.7809666E5,3.26304E5,3.911E4,1.71007E5,1.0111725E5,1.0740406E5,7.5108875E4,0E0,3.1644E4,0E0,0E0,1.511E4,4.561E3,6.6945E3,2.2026875E3,9.889453E3,1.5561547E4,5.622297E3,6.1765E3,0E0,0E0,0E0,0E0,0E0,0E0,0E0,0E0,0E0,0E0,6.1728125E2,7.352998E2,1.7221064E3,2.9627383E3,1.7508594E2,0E0,0E0,0E0,0E0,0E0,0E0,0E0,0E0,0E0,0E0,0E0,0E0,0E0],"parents":[2147483647,0,0,1,1,2,2,3,3,4,4,5,5,6,6,7,7,8,8,9,9,10,10,12,12,15,15,16,16,17,17,18,18,19,19,20,20,21,21,22,22,33,33,34,34,35,35,36,36,37,37],"right_children":[2,4,6,8,10,12,14,16,18,20,22,-1,24,-1,-1,26,28,30,32,34,36,38,40,-1,-1,-1,-1,-1,-1,-1,-1,-1,-1,42,44,46,48,50,-1,-1,-1,-1,-1,-1,-1,-1,-1,-1,-1,-1,-1],"split_conditions":[7.55875E2,3.160708E2,1.17515E3,2.63375E2,4.7068677E2,9.01E2,1.28595E3,1.9568E2,3.4705E2,5.1695E2,5.362296E2,3.2700377E0,1.028E3,8.272671E0,9.448536E0,1.44533E2,2.19762E2,3.02025E2,3.87225E2,4.73575E2,5.648E2,6.25475E2,7.1885E2,5.4136477E0,6.6520615E0,-5.0126705E0,-4.413024E0,-3.9662178E0,-3.5414217E0,-3.0863132E0,-2.6341212E0,-2.0246823E0,-1.6105702E0,4.3225E2,-5.675894E-3,5.37375E2,5.75575E2,6.3925E2,1.2543647E0,1.7918866E0,2.4136908E0,-1.314099E0,-9.146039E-1,-6.551971E-1,-3.634755E-1,-1.9721198E-1,8.077787E-2,3.2959908E-1,5.857172E-1,8.781512E-1,1.9559601E-1],"split_indices":[3,4,7,3,4,2,1,9,3,3,4,0,2,0,0,6,3,3,3,3,1,3,3,0,0,0,0,0,0,0,0,0,0,2,12,1,3,1,0,0,0,0,0,0,0,0,0,0,0,0,0],"split_type":[0,0,0,0,0,0,0,0,0,0,0,0,0,0,0,0,0,0,0,0,0,0,0,0,0,0,0,0,0,0,0,0,0,0,0,0,0,0,0,0,0,0,0,0,0,0,0,0,0,0,0],"sum_hessian":[2.49E3,1.926E3,5.64E2,1.285E3,6.41E2,2.37E2,3.27E2,8.57E2,4.28E2,3.69E2,2.72E2,4.4E1,1.93E2,1.69E2,1.58E2,4.45E2,4.12E2,2.89E2,1.39E2,9E1,2.79E2,1.7E2,1.02E2,6.6E1,1.27E2,1.41E2,3.04E2,1.64E2,2.48E2,1.69E2,1.2E2,9E1,4.9E1,4.8E1,4.2E1,1.03E2,1.76E2,7.7E1,9.3E1,5E1,5.2E1,2.9E1,1.9E1,2.2E1,2E1,2.6E1,7.7E1,7.9E1,9.7E1,7.6E1,1E0],"tree_param":{"num_deleted":"0","num_feature":"14","num_nodes":"51","size_leaf_vector":"1"}},{"base_weights":[-1.2441355E0,-7.563028E1,2.3427287E2,-1.20179115E2,1.3516263E1,1.4767451E2,2.7293845E2,-1.4119362E2,-9.4333885E1,-2.1913513E1,2.946519E1,9.286873E1,1.8089131E2,7.0715656E0,2.926867E2,-4.6663027E0,-1.3081998E2,-1.05585266E2,-7.282212E1,-4.2713673E1,-7.746065E0,1.8114082E1,5.0778706E1,2.5298078E0,3.300129E0,4.6611443E0,5.7539735E0,8.468795E0,9.853671E0,-4.087826E0,-3.6606574E0,-3.3437693E0,-2.8758855E0,-2.4737566E0,-1.8768027E0,-1.4572997E0,-3.289134E1,-1.9258936E1,-3.290079E0,1.1851615E1,2.5741064E1,1.2089626E0,6.280099E1,-1.0010351E0,-2.6465103E-1,-7.2802436E-1,-3.9352542E-1,-2.149054E-1,4.7662742E-3,2.3512982E-1,4.6442923E-1,6.2976E-1,8.797475E-1,1.588992E0,2.0582073E0],"categories":[],"categories_nodes":[],"categories_segments":[],"categories_sizes":[],"default_left":[0,0,0,0,0,0,0,0,0,0,0,0,0,0,0,0,0,0,0,0,0,0,0,0,0,0,0,0,0,0,0,0,0,0,0,0,0,0,0,0,0,0,0,0,0,0,0,0,0,0,0,0,0,0,0],"id":31,"left_children":[1,3,5,7,9,11,13,15,17,19,21,23,25,-1,27,-1,29,31,33,35,37,39,41,-1,-1,-1,-1,-1,-1,-1,-1,-1,-1,-1,-1,-1,43,45,47,49,51,-1,53,-1,-1,-1,-1,-1,-1,-1,-1,-1,-1,-1,-1],"loss_changes":[4.393836E7,7.571063E6,1.975418E6,6.76994E5,3.6002825E5,3.254495E5,2.36042E5,8.3704E4,1.309985E5,5.8016797E4,1.05288375E5,1.408625E3,2.49025E3,0E0,6.54E3,0E0,3.0955E3,1.06735E4,1.461925E4,3.0093125E3,6.0414795E3,1.3450883E4,1.6620125E4,0E0,0E0,0E0,0E0,0E0,0E0,0E0,0E0,0E0,0E0,0E0,0E0,0E0,8.412109E1,6.967363E2,1.163397E3,2.2095605E3,1.5799766E3,0E0,3.0596875E2,0E0,0E0,0E0,0E0,0E0,0E0,0E0,0E0,0E0,0E0,0E0,0E0],"parents":[2147483647,0,0,1,1,2,2,3,3,4,4,5,5,6,6,7,7,8,8,9,9,10,10,11,11,12,12,14,14,16,16,17,17,18,18,19,19,20,20,21,21,22,22,36,36,37,37,38,38,39,39,40,40,42,42],"right_children":[2,4,6,8,10,12,14,16,18,20,22,24,26,-1,28,-1,30,32,34,36,38,40,42,-1,-1,-1,-1,-1,-1,-1,-1,-1,-1,-1,-1,-1,44,46,48,50,52,-1,54,-1,-1,-1,-1,-1,-1,-1,-1,-1,-1,-1,-1],"split_conditions":[7.35375E2,3.995E2,1.07332E3,2.350774E2,5.4825E2,8.88725E2,1.2279E3,1.65033E2,3.0885E2,4.7416E2,6.176E2,7.8025E2,9.9685E2,7.0715656E0,1.30895E3,-4.6663027E0,2.05633E2,2.71837E2,3.53095E2,4.3225E2,5.077E2,5.87875E2,6.625E2,2.5298078E0,3.300129E0,4.6611443E0,5.7539735E0,8.468795E0,9.853671E0,-4.087826E0,-3.6606574E0,-3.3437693E0,-2.8758855E0,-2.4737566E0,-1.8768027E0,-1.4572997E0,5.605398E6,-5.675894E-3,5.37375E2,5.693E2,6.046E2,1.2089626E0,6.892E2,-1.0010351E0,-2.6465103E-1,-7.2802436E-1,-3.9352542E-1,-2.149054E-1,4.7662742E-3,2.3512982E-1,4.6442923E-1,6.2976E-1,8.797475E-1,1.588992E0,2.0582073E0],"split_indices":[3,1,3,9,3,3,3,3,3,9,2,3,3,0,3,0,2,3,9,3,3,3,0,0,0,0,0,0,0,0,0,0,0,0,0,0,5,12,1,3,3,0,3,0,0,0,0,0,0,0,0,0,0,0,0],"split_type":[0,0,0,0,0,0,0,0,0,0,0,0,0,0,0,0,0,0,0,0,0,0,0,0,0,0,0,0,0,0,0,0,0,0,0,0,0,0,0,0,0,0,0,0,0,0,0,0,0,0,0,0,0,0,0],"sum_hessian":[2.506E3,1.905E3,6.01E2,1.27E3,6.35E2,1.87E2,4.14E2,6.98E2,5.72E2,1.97E2,4.38E2,7.2E1,1.15E2,1.48E2,2.66E2,2.87E2,4.11E2,3.73E2,1.99E2,7.9E1,1.18E2,2.87E2,1.51E2,5.2E1,2E1,3.9E1,7.6E1,2.13E2,5.3E1,2.45E2,1.66E2,2.26E2,1.47E2,9.9E1,1E2,4.7E1,3.2E1,3.2E1,8.6E1,1.59E2,1.28E2,8.3E1,6.8E1,3.1E1,1E0,1.6E1,1.6E1,4E1,4.6E1,7.7E1,8.2E1,5.8E1,7E1,2.9E1,3.9E1],"tree_param":{"num_deleted":"0","num_feature":"14","num_nodes":"55","size_leaf_vector":"1"}},{"base_weights":[-5.4623175E-1,-7.1628525E1,2.3426036E2,-1.1612155E2,1.635868E1,1.6850734E2,2.7460562E2,-1.3749364E2,-9.171156E1,-4.790607E0,4.229788E1,1.02186386E2,1.907989E2,7.6716223E0,8.891866E0,-4.52581E0,-1.27704285E2,-1.0293083E2,-6.975839E1,-3.403677E1,6.5381455E0,3.1077187E1,6.4071846E1,2.579537E0,3.8601182E0,4.9136477E0,6.033552E0,-3.9775152E0,-3.578803E0,-3.2437878E0,-2.7611856E0,-2.4035876E0,-1.7941979E0,-4.29186E1,-2.1471626E1,-1.6198118E0,1.2598263E1,2.5661497E1,1.1549654E0,1.545093E0,2.1100924E0,-1.2971518E0,-3.7514785E-1,-7.35935E-1,-4.0145355E-1,-2.2838528E-1,5.740597E-2,2.8010958E-1,4.9377805E-1,6.055444E-1,8.409303E-1],"categories":[],"categories_nodes":[],"categories_segments":[],"categories_sizes":[],"default_left":[0,0,0,0,0,0,0,0,0,0,0,0,0,0,0,0,0,0,0,0,0,0,0,0,0,0,0,0,0,0,0,0,0,0,0,0,0,0,0,0,0,0,0,0,0,0,0,0,0,0,0],"id":32,"left_children":[1,3,5,7,9,11,13,15,17,19,21,23,25,-1,-1,-1,27,29,31,33,35,37,39,-1,-1,-1,-1,-1,-1,-1,-1,-1,-1,41,43,45,47,49,-1,-1,-1,-1,-1,-1,-1,-1,-1,-1,-1,-1,-1],"loss_changes":[4.1442828E7,7.463541E6,1.484404E6,6.47854E5,3.518524E5,3.087075E5,7.07E4,6.8797E4,1.39121E5,1.1751071E5,6.837266E4,1.382375E4,1.30505E4,0E0,0E0,0E0,3.955E2,1.217275E4,1.624325E4,1.0127016E4,1.2676579E4,6.729203E3,4.0150312E3,0E0,0E0,0E0,0E0,0E0,0E0,0E0,0E0,0E0,0E0,1.3703125E1,7.360293E2,2.343866E3,1.6973164E3,9.1358594E2,0E0,0E0,0E0,0E0,0E0,0E0,0E0,0E0,0E0,0E0,0E0,0E0,0E0],"parents":[2147483647,0,0,1,1,2,2,3,3,4,4,5,5,6,6,7,7,8,8,9,9,10,10,11,11,12,12,16,16,17,17,18,18,19,19,20,20,21,21,22,22,33,33,34,34,35,35,36,36,37,37],"right_children":[2,4,6,8,10,12,14,16,18,20,22,24,26,-1,-1,-1,28,30,32,34,36,38,40,-1,-1,-1,-1,-1,-1,-1,-1,-1,-1,42,44,46,48,50,-1,-1,-1,-1,-1,-1,-1,-1,-1,-1,-1,-1,-1],"split_conditions":[7.565E2,3.9505E2,9.323153E2,2.315748E2,5.96E2,9.01E2,1.28595E3,1.65025E2,3.08625E2,4.99225E2,6.522E2,7.975E2,1.0355E3,7.6716223E0,8.891866E0,-4.52581E0,2.05E2,2.7945E2,3.53095E2,4.574E2,5.61475E2,4.991211E2,5.565321E2,2.579537E0,3.8601182E0,4.9136477E0,6.033552E0,-3.9775152E0,-3.578803E0,-3.2437878E0,-2.7611856E0,-2.4035876E0,-1.7941979E0,4.65E2,8.9228095E-4,5.37375E2,1.0229055E-3,5.925E2,1.1549654E0,1.545093E0,2.1100924E0,-1.2971518E0,-3.7514785E-1,-7.35935E-1,-4.0145355E-1,-2.2838528E-1,5.740597E-2,2.8010958E-1,4.9377805E-1,6.055444E-1,8.409303E-1],"split_indices":[1,2,4,9,1,2,1,6,7,2,2,0,1,0,0,0,2,1,9,6,1,4,4,0,0,0,0,0,0,0,0,0,0,1,12,1,12,2,0,0,0,0,0,0,0,0,0,0,0,0,0],"split_type":[0,0,0,0,0,0,0,0,0,0,0,0,0,0,0,0,0,0,0,0,0,0,0,0,0,0,0,0,0,0,0,0,0,0,0,0,0,0,0,0,0,0,0,0,0,0,0,0,0,0,0],"sum_hessian":[2.481E3,1.905E3,5.76E2,1.265E3,6.4E2,2.21E2,3.55E2,6.72E2,5.93E2,3.53E2,2.87E2,5.7E1,1.64E2,1.97E2,1.58E2,2.78E2,3.94E2,3.9E2,2.03E2,9.8E1,2.55E2,1.91E2,9.6E1,3.8E1,1.9E1,5E1,1.14E2,2.4E2,1.54E2,2.58E2,1.32E2,9.6E1,1.07E2,5.6E1,4.2E1,1.09E2,1.46E2,1.13E2,7.8E1,3.5E1,6.1E1,5.5E1,1E0,2.9E1,1.3E1,4E1,6.9E1,8.1E1,6.5E1,3.7E1,7.6E1],"tree_param":{"num_deleted":"0","num_feature":"14","num_nodes":"51","size_leaf_vector":"1"}},{"base_weights":[2.2867448E0,-6.885145E1,2.2723984E2,-1.1309547E2,1.4728052E1,1.6449458E2,2.651176E2,-1.3398111E2,-9.0061264E1,-1.5535218E1,3.2777603E1,1.0069158E2,1.8493436E2,7.270785E0,8.444172E0,-4.3913236E0,-3.7249203E0,-1.0010601E2,-6.8516266E1,-4.0870773E1,-2.542965E0,2.2815016E1,6.019373E1,2.5529447E0,3.7819252E0,4.606755E0,5.805497E0,-3.1805186E0,-2.7367167E0,-2.3313057E0,-1.7401981E0,-1.3718777E0,-3.0601194E1,-1.1382084E1,3.770872E0,1.5255675E1,3.1324923E1,1.453813E0,2.085441E0,-9.321295E-1,-2.546594E-1,-5.072114E-1,-2.1589714E-1,1.3142012E-1,-3.4506315E-1,3.38975E-1,5.246745E-1,8.126835E-1,1.0717505E0],"categories":[],"categories_nodes":[],"categories_segments":[],"categories_sizes":[],"default_left":[0,0,0,0,0,0,0,0,0,0,0,0,0,0,0,0,0,0,0,0,0,0,0,0,0,0,0,0,0,0,0,0,0,0,0,0,0,0,0,0,0,0,0,0,0,0,0,0,0],"id":33,"left_children":[1,3,5,7,9,11,13,15,17,19,21,23,25,-1,-1,-1,-1,27,29,31,33,35,37,-1,-1,-1,-1,-1,-1,-1,-1,-1,39,41,43,45,47,-1,-1,-1,-1,-1,-1,-1,-1,-1,-1,-1,-1],"loss_changes":[4.0230576E7,7.064641E6,1.391888E6,5.88808E5,3.6211906E5,2.81326E5,7.1358E4,6.1293E4,1.2234E5,8.152922E4,1.1197794E5,1.22196875E4,1.68685E4,0E0,0E0,0E0,0E0,1.159325E4,1.4140875E4,2.7917812E3,9.251365E3,1.9206875E4,8.661531E3,0E0,0E0,0E0,0E0,0E0,0E0,0E0,0E0,0E0,4.7898438E1,1.4739385E3,9.5379004E2,1.2516172E3,1.69725E3,0E0,0E0,0E0,0E0,0E0,0E0,0E0,0E0,0E0,0E0,0E0,0E0],"parents":[2147483647,0,0,1,1,2,2,3,3,4,4,5,5,6,6,7,7,8,8,9,9,10,10,11,11,12,12,17,17,18,18,19,19,20,20,21,21,22,22,32,32,33,33,34,34,35,35,36,36],"right_children":[2,4,6,8,10,12,14,16,18,20,22,24,26,-1,-1,-1,-1,28,30,32,34,36,38,-1,-1,-1,-1,-1,-1,-1,-1,-1,40,42,44,46,48,-1,-1,-1,-1,-1,-1,-1,-1,-1,-1,-1,-1],"split_conditions":[7.565E2,2.9570547E2,9.323153E2,2.3025E2,5.62775E2,9.1135E2,1.2571E3,1.65033E2,3.0885E2,3.6097137E2,6.53175E2,7.975E2,9.975E2,7.270785E0,8.444172E0,-4.3913236E0,-3.7249203E0,2.68087E2,3.53095E2,4.3225E2,5.37375E2,4.7068677E2,6.892E2,2.5529447E0,3.7819252E0,4.606755E0,5.805497E0,-3.1805186E0,-2.7367167E0,-2.3313057E0,-1.7401981E0,-1.3718777E0,5.605398E6,5.077E2,5.201392E6,5.75575E2,6.25475E2,1.453813E0,2.085441E0,-9.321295E-1,-2.546594E-1,-5.072114E-1,-2.1589714E-1,1.3142012E-1,-3.4506315E-1,3.38975E-1,5.246745E-1,8.126835E-1,1.0717505E0],"split_indices":[1,4,4,3,3,3,3,3,3,4,3,0,2,0,0,0,0,3,9,3,1,4,3,0,0,0,0,0,0,0,0,0,5,3,13,3,3,0,0,0,0,0,0,0,0,0,0,0,0],"split_type":[0,0,0,0,0,0,0,0,0,0,0,0,0,0,0,0,0,0,0,0,0,0,0,0,0,0,0,0,0,0,0,0,0,0,0,0,0,0,0,0,0,0,0,0,0,0,0,0,0],"sum_hessian":[2.512E3,1.909E3,6.03E2,1.248E3,6.61E2,2.29E2,3.74E2,6.52E2,5.96E2,2.47E2,4.14E2,5.7E1,1.72E2,1.63E2,2.11E2,2.82E2,3.7E2,4.04E2,1.92E2,8.3E1,1.64E2,3.05E2,1.09E2,3.8E1,1.9E1,4.1E1,1.31E2,2.36E2,1.68E2,9.9E1,9.3E1,5.4E1,2.9E1,6.8E1,9.6E1,1.63E2,1.42E2,5.1E1,5.8E1,2.8E1,1E0,2.8E1,4E1,9.3E1,3E0,6.1E1,1.02E2,7.6E1,6.6E1],"tree_param":{"num_deleted":"0","num_feature":"14","num_nodes":"49","size_leaf_vector":"1"}},{"base_weights":[2.6300454E-1,-6.736249E1,2.171896E2,-1.0906809E2,1.4657362E1,1.5002931E2,2.5453818E2,-1.2912637E2,-8.632283E1,-9.690916E0,3.297831E1,2.5950603E0,1.725424E2,6.7855377E0,8.089648E0,-4.3138776E0,-1.2112837E2,-9.5100716E1,-6.278128E1,-3.59159E1,8.215327E-1,2.4407154E1,5.649619E1,4.291301E0,5.4421487E0,-3.8209922E0,-3.4219747E0,-3.0581882E0,-2.577768E0,-2.1123247E0,-1.6512818E0,-1.2711434E0,-2.563328E1,-1.0127779E1,5.3196783E0,1.7927567E1,3.2237988E1,1.4311993E0,1.944952E0,-7.914734E-1,-2.4899596E-2,-4.875455E-1,-1.2809876E-1,3.838154E-2,2.2373001E-1,4.478018E-1,6.5838194E-1,8.41169E-1,1.0384468E0],"categories":[],"categories_nodes":[],"categories_segments":[],"categories_sizes":[],"default_left":[0,0,0,0,0,0,0,0,0,0,0,0,0,0,